<?xml version="1.0"?>
<MethodSetup Method="MLP::MLP">
  <GeneralInfo>
    <Info name="TMVA Release" value="4.2.1 [262657]"/>
    <Info name="ROOT Release" value="6.06/01 [394753]"/>
    <Info name="Creator" value="bregnery"/>
    <Info name="Date" value="Fri Sep  8 02:07:02 2017"/>
    <Info name="Host" value="Linux vocms0315.cern.ch 2.6.32-573.26.1.el6.x86_64 #1 SMP Wed May 4 09:23:05 CEST 2016 x86_64 x86_64 x86_64 GNU/Linux"/>
    <Info name="Dir" value="/uscms/homes/b/bregnery/work/BEST/CMSSW_8_0_12/src/BESTAnalysis/BESTProducer/TMVATraining"/>
    <Info name="Training events" value="100000"/>
    <Info name="TrainingTime" value="5.18136959e+03"/>
    <Info name="AnalysisType" value="Regression"/>
  </GeneralInfo>
  <Options>
    <Option name="NCycles" modified="Yes">20000</Option>
    <Option name="HiddenLayers" modified="Yes">20,20</Option>
    <Option name="NeuronType" modified="Yes">sigmoid</Option>
    <Option name="RandomSeed" modified="No">1</Option>
    <Option name="EstimatorType" modified="No">MSE</Option>
    <Option name="NeuronInputType" modified="No">sum</Option>
    <Option name="V" modified="Yes">False</Option>
    <Option name="VerbosityLevel" modified="No">Default</Option>
    <Option name="VarTransform" modified="Yes">Norm</Option>
    <Option name="H" modified="Yes">False</Option>
    <Option name="CreateMVAPdfs" modified="No">False</Option>
    <Option name="IgnoreNegWeightsInTraining" modified="No">False</Option>
    <Option name="TrainingMethod" modified="Yes">BFGS</Option>
    <Option name="LearningRate" modified="No">2.000000e-02</Option>
    <Option name="DecayRate" modified="No">1.000000e-02</Option>
    <Option name="TestRate" modified="Yes">6</Option>
    <Option name="EpochMonitoring" modified="No">False</Option>
    <Option name="Sampling" modified="Yes">3.000000e-01</Option>
    <Option name="SamplingEpoch" modified="Yes">8.000000e-01</Option>
    <Option name="SamplingImportance" modified="No">1.000000e+00</Option>
    <Option name="SamplingTraining" modified="No">True</Option>
    <Option name="SamplingTesting" modified="No">False</Option>
    <Option name="ResetStep" modified="No">50</Option>
    <Option name="Tau" modified="No">3.000000e+00</Option>
    <Option name="BPMode" modified="No">sequential</Option>
    <Option name="BatchSize" modified="No">-1</Option>
    <Option name="ConvergenceImprove" modified="Yes">1.000000e-06</Option>
    <Option name="ConvergenceTests" modified="Yes">15</Option>
    <Option name="UseRegulator" modified="Yes">False</Option>
    <Option name="UpdateLimit" modified="No">10000</Option>
    <Option name="CalculateErrors" modified="No">False</Option>
    <Option name="WeightRange" modified="No">1.000000e+00</Option>
  </Options>
  <Variables NVar="25">
    <Variable VarIndex="0" Expression="h1_top" Label="h1_top" Title="h1_top" Unit="" Internal="h1_top" Type="F" Min="5.39504327e-02" Max="9.98634338e-01"/>
    <Variable VarIndex="1" Expression="h2_top" Label="h2_top" Title="h2_top" Unit="" Internal="h2_top" Type="F" Min="1.66819915e-01" Max="9.99999762e-01"/>
    <Variable VarIndex="2" Expression="h3_top" Label="h3_top" Title="h3_top" Unit="" Internal="h3_top" Type="F" Min="5.88889383e-02" Max="9.91858840e-01"/>
    <Variable VarIndex="3" Expression="h4_top" Label="h4_top" Title="h4_top" Unit="" Internal="h4_top" Type="F" Min="8.14011395e-02" Max="9.99999583e-01"/>
    <Variable VarIndex="4" Expression="h1_W" Label="h1_W" Title="h1_W" Unit="" Internal="h1_W" Type="F" Min="6.16332069e-02" Max="9.99723554e-01"/>
    <Variable VarIndex="5" Expression="h2_W" Label="h2_W" Title="h2_W" Unit="" Internal="h2_W" Type="F" Min="1.44742891e-01" Max="9.99170899e-01"/>
    <Variable VarIndex="6" Expression="h3_W" Label="h3_W" Title="h3_W" Unit="" Internal="h3_W" Type="F" Min="4.50832956e-02" Max="9.98343170e-01"/>
    <Variable VarIndex="7" Expression="h4_W" Label="h4_W" Title="h4_W" Unit="" Internal="h4_W" Type="F" Min="8.25108960e-02" Max="9.97241378e-01"/>
    <Variable VarIndex="8" Expression="h1_Z" Label="h1_Z" Title="h1_Z" Unit="" Internal="h1_Z" Type="F" Min="5.03854752e-02" Max="9.99642134e-01"/>
    <Variable VarIndex="9" Expression="h2_Z" Label="h2_Z" Title="h2_Z" Unit="" Internal="h2_Z" Type="F" Min="1.51845276e-01" Max="9.98927236e-01"/>
    <Variable VarIndex="10" Expression="h3_Z" Label="h3_Z" Title="h3_Z" Unit="" Internal="h3_Z" Type="F" Min="4.29916233e-02" Max="9.97856677e-01"/>
    <Variable VarIndex="11" Expression="h4_Z" Label="h4_Z" Title="h4_Z" Unit="" Internal="h4_Z" Type="F" Min="6.61494806e-02" Max="9.96432364e-01"/>
    <Variable VarIndex="12" Expression="h1_H" Label="h1_H" Title="h1_H" Unit="" Internal="h1_H" Type="F" Min="5.59437685e-02" Max="9.99312758e-01"/>
    <Variable VarIndex="13" Expression="h2_H" Label="h2_H" Title="h2_H" Unit="" Internal="h2_H" Type="F" Min="1.71247602e-01" Max="9.99996841e-01"/>
    <Variable VarIndex="14" Expression="h3_H" Label="h3_H" Title="h3_H" Unit="" Internal="h3_H" Type="F" Min="5.77048622e-02" Max="9.95889843e-01"/>
    <Variable VarIndex="15" Expression="h4_H" Label="h4_H" Title="h4_H" Unit="" Internal="h4_H" Type="F" Min="9.13677439e-02" Max="9.99989748e-01"/>
    <Variable VarIndex="16" Expression="et" Label="et" Title="et" Unit="" Internal="et" Type="F" Min="5.00000488e+02" Max="2.99937061e+03"/>
    <Variable VarIndex="17" Expression="eta" Label="eta" Title="eta" Unit="" Internal="eta" Type="F" Min="-2.39900684e+00" Max="2.39967251e+00"/>
    <Variable VarIndex="18" Expression="sumPz_top/sumP_top" Label="sumPz_top/sumP_top" Title="sumPz_top/sumP_top" Unit="F" Internal="sumPz_top_D_sumP_top" Type="F" Min="-9.77042079e-01" Max="9.82248187e-01"/>
    <Variable VarIndex="19" Expression="sumPz_W/sumP_W" Label="sumPz_W/sumP_W" Title="sumPz_W/sumP_W" Unit="F" Internal="sumPz_W_D_sumP_W" Type="F" Min="-9.95208561e-01" Max="9.43055689e-01"/>
    <Variable VarIndex="20" Expression="sumPz_Z/sumP_Z" Label="sumPz_Z/sumP_Z" Title="sumPz_Z/sumP_Z" Unit="F" Internal="sumPz_Z_D_sumP_Z" Type="F" Min="-9.93809998e-01" Max="9.54594612e-01"/>
    <Variable VarIndex="21" Expression="sumPz_H/sumP_H" Label="sumPz_H/sumP_H" Title="sumPz_H/sumP_H" Unit="F" Internal="sumPz_H_D_sumP_H" Type="F" Min="-9.88116741e-01" Max="9.72672522e-01"/>
    <Variable VarIndex="22" Expression="tau32" Label="tau32" Title="tau32" Unit="F" Internal="tau32" Type="F" Min="0.00000000e+00" Max="1.11627710e+00"/>
    <Variable VarIndex="23" Expression="tau21" Label="tau21" Title="tau21" Unit="F" Internal="tau21" Type="F" Min="7.24919280e-03" Max="9.84483540e-01"/>
    <Variable VarIndex="24" Expression="SDmass" Label="SDmass" Title="SDmass" Unit="F" Internal="SDmass" Type="F" Min="8.22650865e-02" Max="1.14226990e+03"/>
  </Variables>
  <Spectators NSpec="0"/>
  <Classes NClass="1">
    <Class Name="Regression" Index="0"/>
  </Classes>
  <Targets NTrgt="5">
    <Target TargetIndex="0" Expression="targetX" Label="targetX" Title="targetX" Unit="" Internal="targetX" Type="F" Min="0.00000000e+00" Max="1.00000000e+00"/>
    <Target TargetIndex="1" Expression="targetY" Label="targetY" Title="targetY" Unit="" Internal="targetY" Type="F" Min="0.00000000e+00" Max="1.00000000e+00"/>
    <Target TargetIndex="2" Expression="target3" Label="target3" Title="target3" Unit="" Internal="target3" Type="F" Min="0.00000000e+00" Max="1.00000000e+00"/>
    <Target TargetIndex="3" Expression="target4" Label="target4" Title="target4" Unit="" Internal="target4" Type="F" Min="0.00000000e+00" Max="1.00000000e+00"/>
    <Target TargetIndex="4" Expression="target5" Label="target5" Title="target5" Unit="" Internal="target5" Type="F" Min="0.00000000e+00" Max="1.00000000e+00"/>
  </Targets>
  <Transformations NTransformations="1">
    <Transform Name="Normalize">
      <Selection>
        <Input NInputs="30">
          <Input Type="Variable" Label="h1_top" Expression="h1_top"/>
          <Input Type="Variable" Label="h2_top" Expression="h2_top"/>
          <Input Type="Variable" Label="h3_top" Expression="h3_top"/>
          <Input Type="Variable" Label="h4_top" Expression="h4_top"/>
          <Input Type="Variable" Label="h1_W" Expression="h1_W"/>
          <Input Type="Variable" Label="h2_W" Expression="h2_W"/>
          <Input Type="Variable" Label="h3_W" Expression="h3_W"/>
          <Input Type="Variable" Label="h4_W" Expression="h4_W"/>
          <Input Type="Variable" Label="h1_Z" Expression="h1_Z"/>
          <Input Type="Variable" Label="h2_Z" Expression="h2_Z"/>
          <Input Type="Variable" Label="h3_Z" Expression="h3_Z"/>
          <Input Type="Variable" Label="h4_Z" Expression="h4_Z"/>
          <Input Type="Variable" Label="h1_H" Expression="h1_H"/>
          <Input Type="Variable" Label="h2_H" Expression="h2_H"/>
          <Input Type="Variable" Label="h3_H" Expression="h3_H"/>
          <Input Type="Variable" Label="h4_H" Expression="h4_H"/>
          <Input Type="Variable" Label="et" Expression="et"/>
          <Input Type="Variable" Label="eta" Expression="eta"/>
          <Input Type="Variable" Label="sumPz_top/sumP_top" Expression="sumPz_top/sumP_top"/>
          <Input Type="Variable" Label="sumPz_W/sumP_W" Expression="sumPz_W/sumP_W"/>
          <Input Type="Variable" Label="sumPz_Z/sumP_Z" Expression="sumPz_Z/sumP_Z"/>
          <Input Type="Variable" Label="sumPz_H/sumP_H" Expression="sumPz_H/sumP_H"/>
          <Input Type="Variable" Label="tau32" Expression="tau32"/>
          <Input Type="Variable" Label="tau21" Expression="tau21"/>
          <Input Type="Variable" Label="SDmass" Expression="SDmass"/>
          <Input Type="Target" Label="targetX" Expression="targetX"/>
          <Input Type="Target" Label="targetY" Expression="targetY"/>
          <Input Type="Target" Label="target3" Expression="target3"/>
          <Input Type="Target" Label="target4" Expression="target4"/>
          <Input Type="Target" Label="target5" Expression="target5"/>
        </Input>
        <Output NOutputs="30">
          <Output Type="Variable" Label="h1_top" Expression="h1_top"/>
          <Output Type="Variable" Label="h2_top" Expression="h2_top"/>
          <Output Type="Variable" Label="h3_top" Expression="h3_top"/>
          <Output Type="Variable" Label="h4_top" Expression="h4_top"/>
          <Output Type="Variable" Label="h1_W" Expression="h1_W"/>
          <Output Type="Variable" Label="h2_W" Expression="h2_W"/>
          <Output Type="Variable" Label="h3_W" Expression="h3_W"/>
          <Output Type="Variable" Label="h4_W" Expression="h4_W"/>
          <Output Type="Variable" Label="h1_Z" Expression="h1_Z"/>
          <Output Type="Variable" Label="h2_Z" Expression="h2_Z"/>
          <Output Type="Variable" Label="h3_Z" Expression="h3_Z"/>
          <Output Type="Variable" Label="h4_Z" Expression="h4_Z"/>
          <Output Type="Variable" Label="h1_H" Expression="h1_H"/>
          <Output Type="Variable" Label="h2_H" Expression="h2_H"/>
          <Output Type="Variable" Label="h3_H" Expression="h3_H"/>
          <Output Type="Variable" Label="h4_H" Expression="h4_H"/>
          <Output Type="Variable" Label="et" Expression="et"/>
          <Output Type="Variable" Label="eta" Expression="eta"/>
          <Output Type="Variable" Label="sumPz_top/sumP_top" Expression="sumPz_top/sumP_top"/>
          <Output Type="Variable" Label="sumPz_W/sumP_W" Expression="sumPz_W/sumP_W"/>
          <Output Type="Variable" Label="sumPz_Z/sumP_Z" Expression="sumPz_Z/sumP_Z"/>
          <Output Type="Variable" Label="sumPz_H/sumP_H" Expression="sumPz_H/sumP_H"/>
          <Output Type="Variable" Label="tau32" Expression="tau32"/>
          <Output Type="Variable" Label="tau21" Expression="tau21"/>
          <Output Type="Variable" Label="SDmass" Expression="SDmass"/>
          <Output Type="Target" Label="targetX" Expression="targetX"/>
          <Output Type="Target" Label="targetY" Expression="targetY"/>
          <Output Type="Target" Label="target3" Expression="target3"/>
          <Output Type="Target" Label="target4" Expression="target4"/>
          <Output Type="Target" Label="target5" Expression="target5"/>
        </Output>
      </Selection>
      <Class ClassIndex="0">
        <Ranges>
          <Range Index="0" Min="5.3950432687997818e-02" Max="9.9863433837890625e-01"/>
          <Range Index="1" Min="1.6681991517543793e-01" Max="9.9999976158142090e-01"/>
          <Range Index="2" Min="5.8888938277959824e-02" Max="9.9185883998870850e-01"/>
          <Range Index="3" Min="8.1401139497756958e-02" Max="9.9999958276748657e-01"/>
          <Range Index="4" Min="6.1633206903934479e-02" Max="9.9972355365753174e-01"/>
          <Range Index="5" Min="1.4474289119243622e-01" Max="9.9917089939117432e-01"/>
          <Range Index="6" Min="4.5083295553922653e-02" Max="9.9834316968917847e-01"/>
          <Range Index="7" Min="8.2510896027088165e-02" Max="9.9724137783050537e-01"/>
          <Range Index="8" Min="5.0385475158691406e-02" Max="9.9964213371276855e-01"/>
          <Range Index="9" Min="1.5184527635574341e-01" Max="9.9892723560333252e-01"/>
          <Range Index="10" Min="4.2991623282432556e-02" Max="9.9785667657852173e-01"/>
          <Range Index="11" Min="6.6149480640888214e-02" Max="9.9643236398696899e-01"/>
          <Range Index="12" Min="5.5943768471479416e-02" Max="9.9931275844573975e-01"/>
          <Range Index="13" Min="1.7124760150909424e-01" Max="9.9999684095382690e-01"/>
          <Range Index="14" Min="5.7704862207174301e-02" Max="9.9588984251022339e-01"/>
          <Range Index="15" Min="9.1367743909358978e-02" Max="9.9998974800109863e-01"/>
          <Range Index="16" Min="5.0000048828125000e+02" Max="2.9993706054687500e+03"/>
          <Range Index="17" Min="-2.3990068435668945e+00" Max="2.3996725082397461e+00"/>
          <Range Index="18" Min="-9.7704207897186279e-01" Max="9.8224818706512451e-01"/>
          <Range Index="19" Min="-9.9520856142044067e-01" Max="9.4305568933486938e-01"/>
          <Range Index="20" Min="-9.9380999803543091e-01" Max="9.5459461212158203e-01"/>
          <Range Index="21" Min="-9.8811674118041992e-01" Max="9.7267252206802368e-01"/>
          <Range Index="22" Min="0.0000000000000000e+00" Max="1.1162770986557007e+00"/>
          <Range Index="23" Min="7.2491928003728390e-03" Max="9.8448354005813599e-01"/>
          <Range Index="24" Min="8.2265086472034454e-02" Max="1.1422698974609375e+03"/>
          <Range Index="25" Min="0.0000000000000000e+00" Max="1.0000000000000000e+00"/>
          <Range Index="26" Min="0.0000000000000000e+00" Max="1.0000000000000000e+00"/>
          <Range Index="27" Min="0.0000000000000000e+00" Max="1.0000000000000000e+00"/>
          <Range Index="28" Min="0.0000000000000000e+00" Max="1.0000000000000000e+00"/>
          <Range Index="29" Min="0.0000000000000000e+00" Max="1.0000000000000000e+00"/>
        </Ranges>
      </Class>
    </Transform>
  </Transformations>
  <MVAPdfs/>
  <Weights>
    <Layout NLayers="4">
      <Layer Index="0" NNeurons="26">
        <Neuron NSynapses="20">
          -2.9109923453590159e+00 2.3714142229473163e+00 -1.4242317839304341e+00 2.9145928676486976e+00 -1.2894775727314156e+00 -2.1672832139753164e+00 9.9530888385483240e-01 2.4119777430574398e+00 -1.2595511164342224e+00 -1.8018030233457463e+00 -2.1097372023011434e+00 2.6492822942711398e+00 -1.8408378785517141e+00 2.2899502167495298e-01 7.4409807376845427e-01 -2.9909745963516277e+00 -1.7994281642352759e+00 3.0215975913753179e-01 -6.3448809637391945e-01 3.4540961336104581e+00 
        </Neuron>
        <Neuron NSynapses="20">
          -3.6027642097976174e-02 -1.0544942040561571e+00 2.4967192545573300e-01 -1.8633012798567126e+00 -1.3591955298106499e+00 -4.9075157683097653e-01 1.2287627422077223e+00 -2.2173852808597179e+00 -1.9182935921505699e+00 -1.1069385759160171e+00 -9.2063925560725146e-01 2.1878824403934805e+00 -1.7708362842955487e+00 -6.2429310220766610e-01 7.8845413226896244e-01 2.5003365161020064e+00 1.7477796461476742e+00 9.1582145853771568e-01 -5.8290225818099364e+00 1.3418441305795030e+00 
        </Neuron>
        <Neuron NSynapses="20">
          -7.4421851297716751e-02 6.3993488220062189e-01 3.1222605304457276e+00 2.8222800553042889e-02 -1.2121637884004802e-01 -3.0187238158462200e+00 9.2917253318971771e-01 -7.9223214110708018e-01 -7.1250142977429098e-01 1.1098276743255391e+00 2.8054884588912459e+00 -1.7343292702901831e+00 -8.0645776847632356e-01 6.1977112625885511e-01 -3.0150661051639509e+00 2.3491731882557101e+00 -5.0914059125164748e+00 -3.8225837307066204e+00 9.8257481922174916e-01 4.6377581931481787e-01 
        </Neuron>
        <Neuron NSynapses="20">
          1.4578303312820158e+00 -1.7404103294693309e+00 -6.1012494864357936e-01 4.5887508263051345e-02 1.6232219805624011e+00 4.1251850822668130e+00 1.1909839945473573e+00 5.1167098431568747e-01 -2.0184283661742783e-01 -9.0047624392530845e-01 8.3473769732488201e-01 -1.1401828846441313e+00 6.1849536769128487e-02 2.1581622099305759e+00 -1.1670087226837509e+00 -2.1479620180827244e+00 -3.9260282723265121e+00 7.7230471792625721e-01 -1.6202623877925953e-01 5.2229087034238814e-02 
        </Neuron>
        <Neuron NSynapses="20">
          4.0521377189330128e+00 6.2811819199549557e-01 4.4138430734485397e+00 -6.4709623922167259e-01 -1.1149805262012409e+00 -1.9167406816414992e-01 1.2790234156222642e+00 -3.7231768755882286e-02 -1.8442524008557866e+00 -1.0158272935869013e+00 -1.4336883415706853e-01 -2.6995106070804697e-01 3.4339646127736763e+00 -1.5001084626597174e+00 -1.8604977095107604e+00 1.2672415462618256e+00 -4.2014716390386653e+00 -6.3669162864427986e-01 -1.3958196732396368e+00 4.9549593719658014e-01 
        </Neuron>
        <Neuron NSynapses="20">
          -3.8381552324965229e+00 -3.4523130718366293e+00 -3.4074222517491988e+00 2.6924522979867711e+00 -1.5122535465526443e+00 1.2015274801571607e+00 -2.0730384771662385e+00 -3.3143467663479981e-01 -1.2186837459138262e+00 3.1325545531396476e-01 9.4366661655943185e-01 3.6191613677004786e-01 -8.8748677564010092e-01 1.2321108341804643e+00 9.2665208737019417e-02 1.9373963168790496e+00 8.6130593294238778e-01 2.0742438078414698e+00 1.9975835400973061e+00 8.3700793010911867e-01 
        </Neuron>
        <Neuron NSynapses="20">
          -2.7064564955988879e-01 -2.2556513651915844e+00 -7.4560789581073882e-03 1.5698874368708273e+00 1.1626789872181722e+00 -2.7725839375288636e-01 -8.1426346512991865e-01 2.4760778459646038e-01 -1.4417853101478595e+00 1.3618184018732191e+00 -1.3422389533241457e+00 -1.0757731032824056e+00 2.2780265357160658e+00 -1.4184873474829429e+00 -1.8837859967805544e+00 -1.3089389829184550e-01 9.5413779146356636e-01 -2.2089940749580612e+00 2.5157576715034868e-01 1.4996018312603998e+00 
        </Neuron>
        <Neuron NSynapses="20">
          -4.7431373877831501e-01 -1.8651355965690057e+00 -2.0489853622241103e+00 3.6623109951483190e-01 -1.5607634777489710e+00 -5.6492887348121090e-01 3.0449383097160293e-01 1.1114314882277418e-01 -5.0838675003275302e-01 1.3536081705043904e-01 -1.3253331601468005e-01 1.3355142851256088e+00 7.5664095114326591e-01 -1.7127122120166816e+00 3.6735128711033604e-01 2.2956628614357913e-01 5.3661921408480993e-02 1.6443435192331741e+00 2.2517087635533772e+00 2.3703789914405449e-01 
        </Neuron>
        <Neuron NSynapses="20">
          4.6027186178191197e+00 1.5677768011285358e+00 3.6716439287225953e+00 -1.6004345847622170e-01 9.3987636256871776e-01 -2.2707347897605079e-01 -1.2355888278544465e+00 7.8306957669257460e-01 -8.5277974833813242e-01 4.4830816016914782e-01 6.6479863211332313e-01 2.6059146390173971e+00 1.0300286718437963e+00 2.1546949904359893e+00 -4.4188340634044543e-01 -1.0786670060306836e+00 6.3068666152476294e-01 -2.0989558453003365e+00 6.8352819553060196e-01 -1.1606410293107212e+00 
        </Neuron>
        <Neuron NSynapses="20">
          -2.7634712956876704e+00 8.7522318145927536e-01 -5.1903840131525658e-01 2.3968593752090411e-02 -5.2528244614423314e-01 -7.7575966713213995e-01 -9.2595848289854554e-01 1.9138975614392035e+00 -5.0379989686254512e-01 -6.3193104309032100e-01 1.4118403521234451e+00 -8.3914529437422433e-02 4.5429421899055999e-01 1.9947230972256753e+00 1.7508402553254636e+00 -2.2104961354806711e+00 -2.0166297933420805e+00 3.0277213826300984e+00 1.6311421408691558e+00 -7.3060259332541477e-01 
        </Neuron>
        <Neuron NSynapses="20">
          3.0394522636775734e-01 -1.2468263079894821e+00 3.0824375409364102e-01 -6.8099554757842518e-01 2.1718533803644080e+00 -7.0390751526636985e-02 -6.9196313318566005e-01 9.3264410316384072e-01 2.3349762609490909e+00 1.4395797040661718e+00 -7.3805502980819904e-01 1.1603650476007694e+00 -1.9278922469850843e-01 -2.7704231708822737e+00 -8.1988751613091604e-02 1.0331794921406969e+00 -1.1931652776566211e+00 5.1629657671067775e-01 2.1830485620391098e+00 -5.4804735341722366e-01 
        </Neuron>
        <Neuron NSynapses="20">
          -1.6471049211220847e+00 1.5830780607632642e+00 4.8805815960161525e-01 7.4894124538069418e-01 1.3591217342655149e+00 -1.9516915499858190e+00 -2.5788428447665895e-01 -1.5426654158928139e+00 -2.4127437760666592e+00 -1.6881697810118104e+00 1.6738299581376619e+00 -1.3620995398366191e+00 1.6605611618859398e-01 -1.1634200614861590e+00 1.1348594588827543e+00 4.9135492519374802e-01 1.1974122630416377e+00 -3.9059519782613134e-01 3.8456454446303923e-01 -1.1135678528113655e+00 
        </Neuron>
        <Neuron NSynapses="20">
          1.1599974250014953e+00 1.1633426240754603e+00 -1.5008977832373949e+00 -1.2033055312311781e-02 -1.3275490783680934e+00 1.2419609523212980e+00 -4.0235369554641061e+00 -4.9002527083615517e+00 3.4080757211779864e+00 3.9203066232019551e-01 -3.1032000376142750e+00 1.5306122737599694e+00 2.0177288194003090e-01 2.7454102082126637e+00 3.9464512630673108e+00 -3.6881563160001032e+00 1.1092402350937327e+00 -3.4725010279213637e+00 1.3749965146611178e+00 -2.3218871995580965e+00 
        </Neuron>
        <Neuron NSynapses="20">
          1.8437755063875478e+00 2.1406050866239941e+00 4.0152509509214420e+00 -1.6650464493932446e+00 -1.1039315163869727e-01 -1.7304072694265159e-02 -1.4695976863109514e+00 -1.4031736006216131e+00 2.3243973662387059e+00 -1.8349945420390101e+00 -6.8540904230339572e-01 -1.8282985178614348e+00 5.0515905320563735e-02 9.9611074134456834e-01 -3.0901554514192036e+00 -2.2407838203532693e-01 2.4597637616978365e+00 -4.5572151335231563e+00 -1.8317958862932854e-01 -1.7079561590514294e+00 
        </Neuron>
        <Neuron NSynapses="20">
          -8.5406982552271904e-01 -2.2789017703842229e+00 -4.6666013984478276e+00 2.2520343947537969e+00 -7.2538192058463125e-01 -3.6447024467907436e+00 -1.5784623471388739e+00 2.7376729599072256e+00 -2.7334759469692984e+00 2.1479072382018716e+00 -6.2329051721273732e-01 4.9900886148898349e-01 9.7130122596205681e-02 -1.0891168853414193e+00 8.4865908532811807e-01 -1.4030105543880631e+00 -9.3050165221039899e-02 3.3093631805266406e+00 -3.5238895671743387e-01 -1.4718849000419036e+00 
        </Neuron>
        <Neuron NSynapses="20">
          -1.3317926370533872e+00 1.7935880752606495e+00 5.6327857387039715e-01 -1.1094703498077123e+00 3.5710245932583533e-02 -9.8784490071313513e-02 7.1687130329605123e-02 -2.0895434946408247e+00 -7.1113245837302030e-01 -3.3403676795319042e+00 -1.6093212258400167e+00 -1.1192218756385657e+00 -1.3838184643689435e+00 1.3360559431174539e+00 -1.0382295842742451e+00 1.2710940443560365e-01 2.4994667474898424e-02 -2.4049254308375070e+00 2.4460428885448069e+00 1.4306367205570569e+00 
        </Neuron>
        <Neuron NSynapses="20">
          2.2468952637165063e+00 4.4607314298813683e-01 -3.9745667645722991e+00 -2.2198860253535124e-01 7.6105487940911387e-01 4.8182696026140315e+00 -2.9151880829648906e+00 2.2716438910802630e+00 -6.8626618756762825e-01 7.0487986373633893e-01 -1.7522503266033909e+00 -1.8962553120444872e+00 -1.1935174834129727e+00 -2.0415572501187249e+00 -4.1803777092807746e+00 3.4851737939567591e+00 -3.4431899094330759e-01 2.9737085415051762e-01 2.6695159153579220e+00 2.2645883890130225e+00 
        </Neuron>
        <Neuron NSynapses="20">
          2.2144240313896121e-01 -1.9353896676785493e-01 9.4226448975392540e-01 -2.1349461760165372e-01 3.4705446632141290e-01 -1.6671227818619679e-02 1.8663056198069270e+00 1.9721094221872865e-03 4.3871133474879653e-01 -3.2513187155497564e-01 -4.4891392969980726e-01 -1.9987591759694853e-01 3.8415542874737929e-01 1.9271500043309224e+00 -1.1119462026577058e+00 -4.8705716262395886e-02 -3.4250943767012709e-01 -2.9004215693934893e-01 2.7902170533584819e-01 3.4084743390378835e-01 
        </Neuron>
        <Neuron NSynapses="20">
          3.4361524316805292e-01 -2.0341707673495568e+00 -4.2895008197103501e-01 -3.9443897408084569e+00 1.1253323472966739e+00 2.3319842364297543e+00 -8.5001018374007653e-01 -2.2993846689106337e-01 -1.9729622776708873e+00 -1.1327663557254606e+00 9.0854371045694127e-01 -3.9145495157821393e+00 -9.9130139817824958e-01 1.4845604727569275e+00 -3.0308187853868931e-02 4.4476544955148176e+00 -5.7865394283549210e-01 7.7297735943681745e-01 8.1426894684291720e-02 1.7261587885829579e+00 
        </Neuron>
        <Neuron NSynapses="20">
          -3.2807731069507079e-01 -1.9552553869277389e+00 6.2378467650502123e-01 1.3108341887455546e+00 1.5539776488483288e+00 9.1210748770416283e-01 -1.1444274188484385e-01 -9.6975773492400985e-01 2.2153535565715501e+00 -9.8017195095063248e-01 2.4885019611784784e+00 -3.4935231637622560e-01 -2.7771877531536786e+00 -1.0716487248932380e+00 -9.3353378601723236e-01 2.9779192114520896e+00 1.6976943073478934e+00 1.3839574389601996e+00 4.7244954397283330e+00 -1.0517551441314459e+00 
        </Neuron>
        <Neuron NSynapses="20">
          1.2231541406167954e+00 -3.2936754940105017e-01 1.5041680754419804e+00 -7.4615315205690302e-01 2.2667208943643509e+00 -1.0645519498467759e+00 -3.1759848986103201e-01 6.4875106897116985e-01 4.8904402046934192e-01 -5.8486658932424873e-01 5.2599842147537934e-01 -2.5883210060580213e+00 -2.2389735528253565e-01 -2.6451677714512196e+00 1.3173909886600630e+00 4.8698128129214574e-01 1.8426284258690677e+00 1.7004644432185401e+00 4.2987574535019695e+00 -6.6710853041090090e-01 
        </Neuron>
        <Neuron NSynapses="20">
          -2.3565456406147405e+00 -1.9104974281398455e+00 1.3187377838480034e+00 -1.8553403285716832e+00 -8.0677100536937441e-01 9.1430889304450857e-01 -9.7967086597952480e-01 -4.5893304619586482e-02 -7.1831093655572620e-01 2.4338461948212453e-01 1.4030473244567114e+00 -3.0678315844951984e+00 -2.0335768965471681e+00 -8.5253067521499082e-01 2.6478881531607970e+00 9.8679032068886829e-01 6.3978969824372109e-02 3.0363918122099226e-01 -3.6257095734096800e-01 1.9169052985739279e+00 
        </Neuron>
        <Neuron NSynapses="20">
          -2.4424398771066156e+00 -2.7588405490509671e+00 -7.6172796790592034e-01 -3.4542689487464884e+00 -1.4143438925339720e+00 -9.9315473855576875e-02 1.0699894427594434e+00 -3.7451967423160273e+00 -9.3122404255622959e-01 -1.8664979160453925e+00 2.1597110711064773e+00 -4.1427582509300418e+00 8.1677444969390733e-01 -3.0455750031085920e+00 -8.1947248224873009e-02 1.7522877817874416e+00 -7.7524063142110400e-01 -3.7069308171623652e+00 5.0174075490296532e+00 6.4843107689235602e+00 
        </Neuron>
        <Neuron NSynapses="20">
          3.9912890356763189e+00 -1.9208390552318395e+00 1.6790457626068829e+00 -4.5223122778021336e+00 1.3604347698473687e+00 -3.9459942836389610e+00 -1.1271792285186290e-01 -2.6534579020028435e+00 -4.6751550811352622e+00 1.6730197168899283e-01 1.9440013415890967e+00 -8.8629023434227971e-01 -3.2189140453945582e+00 3.0181191250910890e+00 -4.2789513739291019e-01 -3.9597767585444910e+00 1.4206707239174785e+00 2.8350028892939760e-01 2.4687188360267793e+00 -1.4300189767858791e+00 
        </Neuron>
        <Neuron NSynapses="20">
          -6.0449226177922455e-01 3.4188353833870477e-01 2.1128202904013298e+00 2.9481856146520896e-01 9.2789556566123488e-01 -1.1277633934478055e+00 -1.2699578801577316e+00 -1.6739948833893918e+00 1.6675528043671290e+00 2.2047282647839324e+00 1.3928905403678953e-02 -3.1874898301220718e+00 -2.2836999962113702e+00 -4.9976180440449447e+00 1.8049090734524786e+00 2.4117507360555268e+00 5.1543843632813346e-01 -1.7375530268498574e+00 -1.5051851923046864e+00 -1.5595564175866652e+00 
        </Neuron>
        <Neuron NSynapses="20">
          -3.8873773138010024e+00 3.3818818229498464e+00 4.5353630299921006e+00 3.9828892513921810e+00 -1.2674237182859103e+00 5.3268313869480266e-01 5.8018802853425449e+00 -7.5911295407792700e-01 -4.0594026894221658e-01 -2.5715820930394320e+00 5.4767401823261086e-01 -5.5981970457243211e+00 1.6781867981351801e+00 6.0605023273972869e-01 6.1745158246557148e+00 6.8472525063427292e-01 -2.2617429742736843e+00 -5.5763190677148862e-02 -2.4812946419534123e+00 -1.3487123060269590e+00 
        </Neuron>
      </Layer>
      <Layer Index="1" NNeurons="21">
        <Neuron NSynapses="20">
          1.4343140794129674e+00 -1.5026752330190805e+00 2.3799957006307113e+00 -1.8760479413714541e+00 -3.9614652150305579e-01 -1.4248181470420223e+00 -2.2650350224716587e-01 -1.3958821311420863e-01 3.1243982206431897e+00 -1.6821596294306598e+00 1.2155981414549639e+00 -1.1781280323566914e+00 9.1147707202870065e-01 2.2158584362442474e-01 -3.9190802001392638e-01 -3.1936588257344547e+00 -1.0799882103624807e+00 -6.4586055435530987e-01 4.9463818304402818e-01 -1.8699014650252648e+00 
        </Neuron>
        <Neuron NSynapses="20">
          3.6719049979045693e+00 2.2591731825440606e-01 -2.4488409111558616e+00 -1.4070235020251334e+00 3.2215847243046747e-01 -3.8140021586720390e+00 -2.0769536602607381e+00 -1.8576876955382671e+00 8.8459679515068335e-01 -3.2913206733196367e+00 1.0826063298196764e+00 5.6449986315008138e-01 -6.8377894833463904e-01 -6.9373119556156204e-01 -3.5853655074239987e-01 -4.0797358603833001e+00 9.8403798705204604e-02 -1.1301848924573954e+00 3.6812424613776078e+00 -2.0890877447715592e+00 
        </Neuron>
        <Neuron NSynapses="20">
          2.7862579366835520e+00 1.9813666192084725e+00 2.5271563846286598e+00 5.2054720974300683e-01 -6.0044625847153577e-01 -1.8076748285618320e+00 -1.0572171619180455e+00 -2.1289710272695861e+00 1.5063183879475084e+00 2.5437060542860512e-01 1.1082448875577284e+00 -7.0721170244862941e-01 5.7194007590580243e-01 2.0088672454992134e+00 3.4767003051199052e-01 -1.4925722890026827e-01 3.2274938095468482e+00 -2.6555436703195379e+00 4.1180022534163676e+00 -1.5898282928651180e+00 
        </Neuron>
        <Neuron NSynapses="20">
          3.2992108062567147e+00 -4.4550049774714405e-02 2.4465285589105257e+00 -1.7613014982741173e+00 1.6382281542934038e-01 -2.9983061327777212e+00 -7.6051828584473471e-02 1.0388045010137268e+00 2.4703413931547857e-01 9.1440695704412311e-01 -1.5436006594912077e+00 1.4612907924844070e+00 1.1105641317248013e-01 1.2208568003884130e+00 -1.6716364150456047e+00 -3.7799267617074883e-01 1.6137011294917942e+00 -1.3361095966654311e+00 -2.9719095712098484e+00 -1.3227927939120887e+00 
        </Neuron>
        <Neuron NSynapses="20">
          2.7486206112681533e-01 1.4581341673765522e+00 1.5621657310930532e+00 -1.8542248165451223e+00 7.1042948390988736e-01 -2.4749500138213615e-02 2.8505703238479940e-01 -1.5359332721336498e+00 -9.7220354068354753e-01 5.9528607707951575e-01 3.3034055604535824e-02 1.5763427100827563e+00 -6.2931906149774919e-01 -1.1981051778325664e-02 -1.1564237743406978e+00 -1.0281915439802756e+00 1.1476454177896183e+00 1.1077206509176263e+00 -2.5715774555126453e-01 -1.5596275966089499e+00 
        </Neuron>
        <Neuron NSynapses="20">
          2.7299520998332021e+00 -5.1954955731874697e-02 1.3597099195103495e+00 -3.5068714359563119e-01 -1.7886568122247173e+00 -2.9468385832549839e+00 -1.0040420633583380e+00 -1.1491938642570187e+00 -1.8367997953679065e+00 6.5739162997459144e-01 2.8048729798151939e+00 -3.1298624241793735e+00 1.1550974685915445e+00 -1.9075259938115479e+00 -1.4537288026211892e+00 1.6793409048180533e-01 9.6812817268727025e-01 -6.2126664867102910e-01 2.2385706526706537e+00 -1.1940553816182646e+00 
        </Neuron>
        <Neuron NSynapses="20">
          -4.7934536337624287e+00 -1.1752155338224466e+00 5.3219208171528520e-01 -3.6117795046814682e-01 -1.5138288451684729e+00 1.6424911709741177e-01 -1.6325776511343739e+00 1.1251503639799119e+00 -4.9489433302796321e-01 9.5891359743489546e-01 1.3329419025437017e-01 6.7765182442946836e-01 -6.6048614607740708e-01 -9.9335610329870061e-01 6.5622645088686704e-01 3.3860588973856753e-01 4.1008001163208303e-02 -2.2068557471695067e+00 9.5531614662776088e-01 -1.9103976951581428e-01 
        </Neuron>
        <Neuron NSynapses="20">
          -5.3285859009666643e+00 2.0970965700156561e+00 2.0750296060898976e+00 -1.4293172346724872e+00 -5.5692150274074481e-01 -8.9342649417439179e-01 1.2940475160843734e-01 1.4750313474324397e+00 2.2003297158716180e+00 4.3738441643413939e-01 -2.6458631067826186e+00 2.4874760381615002e+00 -6.1538534717559101e-01 -6.5973566748989720e-01 3.1951608759508408e+00 -3.1864894215564310e-01 7.0945347824680915e-01 -9.9855704806962653e-01 8.0281203902667297e-01 -2.0468825380711761e+00 
        </Neuron>
        <Neuron NSynapses="20">
          2.8341360252002961e+00 6.2569605951277885e-01 1.9125257816719079e+00 -1.2936465923730189e+00 -1.8684692274057027e-01 3.4078234126379231e-01 8.6844541594872937e-01 -7.7650720918685778e-01 -3.3956579187033205e+00 -2.1026231848265559e-01 7.1509277211761213e-01 1.6749478580417998e+00 7.8438514923086633e-01 1.0009699160606325e+00 -2.4528443722467783e-01 2.9287819670065784e-01 6.1385164919201229e-01 1.0444021361416551e+00 -3.4045012854937142e+00 2.8583891148200158e-01 
        </Neuron>
        <Neuron NSynapses="20">
          3.1134783543986884e+00 1.8834350489151610e+00 1.4218606084643637e+00 -8.5720565358969436e-01 -1.1716926819665743e+00 -7.0615219256189288e-01 -7.0402119770564586e-01 -1.8609046657276105e+00 -3.5474387511693095e-01 -1.0557868325595199e+00 3.5476772164070747e-01 6.4041085706432244e-01 1.2074918494405200e+00 2.4692863203589800e-02 -4.7256757755410245e-01 2.4576901732652745e+00 -1.5152672853958289e+00 -1.8129489798636331e+00 6.8874781876007984e-01 -2.6252962992308504e-01 
        </Neuron>
        <Neuron NSynapses="20">
          -4.0304098018653294e+00 2.1072514481074291e+00 -2.7827742061136131e+00 -1.5111892151990656e+00 1.3566550875475594e+00 -1.4717657282312495e+00 7.9310397602613958e-01 -4.6305856109196103e-01 1.7514318212287707e+00 8.8137582903135336e-01 1.2145509194934492e+00 -2.0595121947602095e+00 1.8603431540558608e+00 2.0898735794364112e+00 -9.9638876315470359e-01 -1.5673010903776539e+00 5.7016643950589940e-01 1.0178094040851471e+00 -8.6603828292475549e-01 -3.5549748988687274e-01 
        </Neuron>
        <Neuron NSynapses="20">
          -5.6511481997396178e+00 1.5793158997231109e+00 -5.8295744154733053e-01 -2.8504332808462496e-01 -9.3392656497420201e-01 -1.1442419469096226e+00 7.2460132182186984e-02 1.1092576354398720e+00 -2.2029317315443837e+00 3.1107482101957845e-01 -4.9175801327802221e-01 3.9468066020438610e+00 2.0568888200331314e+00 1.5169661659172411e+00 9.2049955948396722e-01 -4.8943496041556012e-01 -4.6925093679103114e-01 -8.0491809436551531e-01 -7.3779702012707149e-01 1.3112680248958510e+00 
        </Neuron>
        <Neuron NSynapses="20">
          1.1910449443443205e+00 3.7960907991125409e-01 4.2723853380957832e-01 -1.1499598705051375e+00 1.5057392540435259e+00 -1.8892574912753448e+00 -8.9040280039971331e-01 -1.6104584013804522e+00 -1.6138905865297042e+00 -4.0583559648915006e+00 1.0308645385130025e-01 3.5592729659688083e-01 1.5133179957352441e+00 1.9105348353297216e+00 1.7333467721314455e-01 -3.4590607305568044e+00 -1.8560073686444367e+00 4.7284939793513109e-01 3.0188165194413009e-02 2.9318488993768110e-01 
        </Neuron>
        <Neuron NSynapses="20">
          -3.1485220791708870e+00 1.1004727155311795e+00 2.3221250204750912e+00 -1.6044174537236806e+00 -1.5379481802908914e+00 5.6817573792380149e-01 -8.0958946194384729e-01 -1.9861903364293292e+00 5.8019856561927219e-01 -2.4553080258501088e+00 3.1432653657516547e+00 -6.2284143492636499e+00 1.0191556787347231e-01 4.2335154577106676e-01 1.1333615572836291e-01 2.8383941840000225e-02 7.1592567438671384e-01 4.3997058556448376e-01 1.1095656935558690e-01 -1.5064042868847993e+00 
        </Neuron>
        <Neuron NSynapses="20">
          6.0755218357700853e+00 1.0451190550467726e+00 3.5569482857225068e+00 -1.8363804026562331e+00 -2.2494737229267021e+00 1.0107449605070822e+00 1.0888639791975603e+00 -1.4157150602860797e+00 -9.7236848488382843e-01 4.6240117992965241e-01 -7.8285480224971160e-01 -5.3223724039001210e+00 -5.4040929619385136e-01 3.4279256455543972e-01 -2.4452915698198647e+00 8.2954708616785033e-01 1.1232181880085570e+00 1.3566557199557424e-02 -3.5114895805308755e+00 -4.3753620953641487e-01 
        </Neuron>
        <Neuron NSynapses="20">
          -1.1024755255382730e+00 1.4169810999790509e+00 -1.1315990923175032e-01 -1.8205516163639810e+00 1.0406980368173058e+00 6.5691913970445082e-01 2.1454660737544620e+00 -1.3386191034960413e+00 2.8379190222345905e+00 2.9656614018331884e+00 6.5811681613998296e-01 2.8194714977527224e-01 1.2641307283200451e+00 -9.2500922938821517e-01 5.9761070608005451e-01 2.1749969075423814e+00 1.6196003987709857e+00 2.3324222351541149e-01 3.8659447120309487e+00 -2.0080567991748657e+00 
        </Neuron>
        <Neuron NSynapses="20">
          -9.9911008220886555e-01 9.4628103572875799e-01 1.1731499737733213e+00 1.8434698767051083e-01 -2.1180246160187339e+00 1.7829873405574468e+00 -1.4712991551874541e+00 2.1175663300008737e-01 -1.2520378446454077e+00 -2.4914441197237638e+00 -1.2396186697580456e+00 -9.1989730235238221e-01 -1.8469996488720430e+00 1.7593062476238508e+00 1.3356833038704974e+00 -2.0924860927209030e+00 5.6960332198904992e-02 -1.6509423947034150e+00 4.3917569478778500e+00 2.5983189006585636e+00 
        </Neuron>
        <Neuron NSynapses="20">
          2.0321693210524745e+00 1.8416559808839048e+00 -9.8175821309856171e-01 -4.8960278823473646e-01 -3.5414583770413066e-01 6.3937701345557119e-01 -1.2674814853411279e-01 -2.1181054835854569e+00 -9.0631355624770715e-01 3.5047502946808908e+00 6.0228270709528020e-01 -5.5776300676979773e-01 1.6546286484315504e+00 1.8950258160066957e+00 -1.6854099707846835e+00 4.0934344961155071e+00 7.6261972009386780e-01 -2.8194916850068541e+00 -5.7610731714666814e+00 8.5724846377548236e-01 
        </Neuron>
        <Neuron NSynapses="20">
          3.5168146480531624e+00 8.2506066543777279e-01 -3.9693378438449822e+00 2.2094845627176987e-01 -4.2847972390050483e-02 -9.6318849545147767e-01 -2.6450150499442167e+00 -7.9757960277959927e-01 1.3989003345535775e+00 -3.1978765670505321e-01 1.1115374585554181e+00 9.9498134716696141e-01 1.3664955346756416e+00 1.3477187409359773e-01 2.2907309553653538e-01 -6.7759985323410998e-01 1.4702213538537703e+00 -1.4203850831266167e+00 -3.1615622679633910e+00 -5.2801765244581955e-01 
        </Neuron>
        <Neuron NSynapses="20">
          -4.4787335451885166e+00 1.4823134892419034e+00 5.7882874424486375e-01 1.0309468833647233e-01 1.5297025322814148e+00 2.7205667464988843e+00 1.7713475980174505e+00 1.9800117867147542e+00 1.0506553564556409e+00 7.2333343613308698e-01 1.6877199174764999e+00 -1.2050610158737023e+00 1.5624537423341718e+00 1.7745422903056449e+00 -1.8120545461983624e+00 9.8907981155962443e-02 -2.0106243170378586e+00 3.7998989874878535e-02 -1.6927484697866748e+00 -5.7430317711447010e-01 
        </Neuron>
        <Neuron NSynapses="20">
          -2.8777242802696006e+00 1.7213355159593076e+00 2.1136408007370187e+00 7.5649767162414217e-01 -2.1528893627699528e+00 2.1288487737246409e+00 -1.6934070906673613e+00 -1.3828364101767224e-01 1.1955288145155512e+00 1.3107265201891524e-01 2.3381705373486159e-01 -1.4581592633847649e+00 2.4658081899990738e+00 2.1744679870205679e+00 -1.3797116644946315e+00 1.3511772514901370e+00 -2.0765160209363374e+00 -1.0886668140366633e+00 -5.8002373468791024e+00 7.6261595388853864e-01 
        </Neuron>
      </Layer>
      <Layer Index="2" NNeurons="21">
        <Neuron NSynapses="5">
          1.8035552917893436e+00 -3.1886877593637070e-01 -1.7257990647448973e-01 -5.0642246345130613e-02 -1.2166842334197274e+00 
        </Neuron>
        <Neuron NSynapses="5">
          -1.9494386244312825e+00 1.0194675995811506e-01 -1.1755207976508035e+00 2.7931229533899748e+00 9.9032108638039484e-01 
        </Neuron>
        <Neuron NSynapses="5">
          -2.5008285048529105e-01 -9.5686583581713072e-02 6.1570455602532459e-01 -4.6060488596420655e+00 4.0829014859714254e+00 
        </Neuron>
        <Neuron NSynapses="5">
          2.7529888210693229e-02 -1.3386835322024602e+00 -1.6699095733223799e+00 -2.6988394992871018e-01 -5.3698726009297870e-01 
        </Neuron>
        <Neuron NSynapses="5">
          1.7850447492963835e+00 -2.9672834821123140e-01 5.2192342626987098e-01 -1.1172810497217547e+00 -8.1938282885983549e-01 
        </Neuron>
        <Neuron NSynapses="5">
          -1.3876704297361050e-01 -1.2270986576511907e-01 -1.8092591771356117e-01 -1.5206078877713796e+00 1.9267981076370542e+00 
        </Neuron>
        <Neuron NSynapses="5">
          5.2403234086046346e-01 6.1177247279843472e-02 4.2059254697674636e-01 9.5847514553117563e-01 -1.9751790117311701e+00 
        </Neuron>
        <Neuron NSynapses="5">
          2.5156866926486607e+00 7.0578580661012835e-01 -1.3101524289051152e+00 -4.3770598548368944e-01 -2.1046541177870548e+00 
        </Neuron>
        <Neuron NSynapses="5">
          8.2633138506929349e-01 2.1904094641310190e-01 1.3675173363931817e-01 1.5939295182328683e-01 -1.2372757928306972e+00 
        </Neuron>
        <Neuron NSynapses="5">
          -7.8138233647744759e-01 -1.5575000400049380e-01 2.1993975011766835e+00 -2.0703256080304316e-01 -1.0047656885008314e+00 
        </Neuron>
        <Neuron NSynapses="5">
          1.8939063377845986e+00 -3.6234310133887260e-01 -8.8571846404742005e-01 -1.4408729997303311e+00 6.9820449810163465e-01 
        </Neuron>
        <Neuron NSynapses="5">
          -2.1619809743306178e+00 4.9136406858149240e+00 -1.4076046958726265e-01 -1.9783099156900430e-01 -2.2866488568754786e+00 
        </Neuron>
        <Neuron NSynapses="5">
          -1.3759265884779677e+00 -4.0610942350536761e-01 -9.8793294371590568e-01 2.7909287001523103e-01 -1.4172211080559585e+00 
        </Neuron>
        <Neuron NSynapses="5">
          -1.3549606658033957e+00 -8.3895608236488972e-01 9.9895431601081519e-01 2.0823955890350225e+00 -2.6477006324933812e+00 
        </Neuron>
        <Neuron NSynapses="5">
          -2.9991061136485087e-01 1.7242485904401810e+00 1.1808326130142937e+00 -3.9595338306273414e-01 -1.9333111155570828e+00 
        </Neuron>
        <Neuron NSynapses="5">
          4.1878370709240603e-01 -9.4887533055623405e-02 -2.2546593285651779e+00 1.5144642988432082e+00 4.0110688244673043e-01 
        </Neuron>
        <Neuron NSynapses="5">
          7.8201334371851783e-01 8.7034477079722594e-01 2.3472496032846127e-01 9.4723169417032984e-03 -1.9386635151750713e+00 
        </Neuron>
        <Neuron NSynapses="5">
          1.5623022044364201e+00 -8.2989358774406097e-01 -1.6177978453847774e+00 1.0781372326585488e+00 -9.3630582271721596e-01 
        </Neuron>
        <Neuron NSynapses="5">
          -4.9819588201699067e-01 1.5973870066239890e+00 -2.6250349409120127e-01 -6.4731766340437549e-02 -7.5117513293802285e-01 
        </Neuron>
        <Neuron NSynapses="5">
          -5.8459522084252380e-01 5.3893292316839791e-01 1.5593089460073675e+00 1.8167851530516992e+00 -1.7339559703532910e+00 
        </Neuron>
        <Neuron NSynapses="5">
          1.0052877468839392e+00 -9.3813220555350463e-02 2.4842654899568795e-01 -2.0147172813111561e-01 1.2032381297405927e+00 
        </Neuron>
      </Layer>
      <Layer Index="3" NNeurons="5">
        <Neuron NSynapses="0"/>
        <Neuron NSynapses="0"/>
        <Neuron NSynapses="0"/>
        <Neuron NSynapses="0"/>
        <Neuron NSynapses="0"/>
      </Layer>
    </Layout>
  </Weights>
</MethodSetup>
