<?xml version="1.0"?>
<MethodSetup Method="MLP::MLP">
  <GeneralInfo>
    <Info name="TMVA Release" value="4.2.1 [262657]"/>
    <Info name="ROOT Release" value="6.06/01 [394753]"/>
    <Info name="Creator" value="bregnery"/>
    <Info name="Date" value="Fri Sep  8 13:27:18 2017"/>
    <Info name="Host" value="Linux vocms0315.cern.ch 2.6.32-573.26.1.el6.x86_64 #1 SMP Wed May 4 09:23:05 CEST 2016 x86_64 x86_64 x86_64 GNU/Linux"/>
    <Info name="Dir" value="/uscms/homes/b/bregnery/work/BEST/CMSSW_8_0_12/src/BESTAnalysis/BESTProducer/TMVATraining"/>
    <Info name="Training events" value="100000"/>
    <Info name="TrainingTime" value="4.41449593e+03"/>
    <Info name="AnalysisType" value="Regression"/>
  </GeneralInfo>
  <Options>
    <Option name="NCycles" modified="Yes">20000</Option>
    <Option name="HiddenLayers" modified="Yes">20,20</Option>
    <Option name="NeuronType" modified="Yes">sigmoid</Option>
    <Option name="RandomSeed" modified="No">1</Option>
    <Option name="EstimatorType" modified="No">MSE</Option>
    <Option name="NeuronInputType" modified="No">sum</Option>
    <Option name="V" modified="Yes">False</Option>
    <Option name="VerbosityLevel" modified="No">Default</Option>
    <Option name="VarTransform" modified="Yes">Norm</Option>
    <Option name="H" modified="Yes">False</Option>
    <Option name="CreateMVAPdfs" modified="No">False</Option>
    <Option name="IgnoreNegWeightsInTraining" modified="No">False</Option>
    <Option name="TrainingMethod" modified="Yes">BFGS</Option>
    <Option name="LearningRate" modified="No">2.000000e-02</Option>
    <Option name="DecayRate" modified="No">1.000000e-02</Option>
    <Option name="TestRate" modified="Yes">6</Option>
    <Option name="EpochMonitoring" modified="No">False</Option>
    <Option name="Sampling" modified="Yes">3.000000e-01</Option>
    <Option name="SamplingEpoch" modified="Yes">8.000000e-01</Option>
    <Option name="SamplingImportance" modified="No">1.000000e+00</Option>
    <Option name="SamplingTraining" modified="No">True</Option>
    <Option name="SamplingTesting" modified="No">False</Option>
    <Option name="ResetStep" modified="No">50</Option>
    <Option name="Tau" modified="No">3.000000e+00</Option>
    <Option name="BPMode" modified="No">sequential</Option>
    <Option name="BatchSize" modified="No">-1</Option>
    <Option name="ConvergenceImprove" modified="Yes">1.000000e-06</Option>
    <Option name="ConvergenceTests" modified="Yes">15</Option>
    <Option name="UseRegulator" modified="Yes">False</Option>
    <Option name="UpdateLimit" modified="No">10000</Option>
    <Option name="CalculateErrors" modified="No">False</Option>
    <Option name="WeightRange" modified="No">1.000000e+00</Option>
  </Options>
  <Variables NVar="25">
    <Variable VarIndex="0" Expression="et" Label="et" Title="et" Unit="" Internal="et" Type="F" Min="5.00000488e+02" Max="2.99937061e+03"/>
    <Variable VarIndex="1" Expression="eta" Label="eta" Title="eta" Unit="" Internal="eta" Type="F" Min="-2.39900684e+00" Max="2.39967251e+00"/>
    <Variable VarIndex="2" Expression="isotropy_H" Label="isotropy_H" Title="isotropy_H" Unit="" Internal="isotropy_H" Type="F" Min="4.03806940e-02" Max="9.99955893e-01"/>
    <Variable VarIndex="3" Expression="aplanarity_H" Label="aplanarity_H" Title="aplanarity_H" Unit="" Internal="aplanarity_H" Type="F" Min="-5.82867088e-16" Max="3.90573829e-01"/>
    <Variable VarIndex="4" Expression="sphericity_H" Label="sphericity_H" Title="sphericity_H" Unit="" Internal="sphericity_H" Type="F" Min="2.27830287e-06" Max="8.84641826e-01"/>
    <Variable VarIndex="5" Expression="thrust_H" Label="thrust_H" Title="thrust_H" Unit="" Internal="thrust_H" Type="F" Min="6.12660944e-01" Max="9.99999225e-01"/>
    <Variable VarIndex="6" Expression="isotropy_top" Label="isotropy_top" Title="isotropy_top" Unit="" Internal="isotropy_top" Type="F" Min="6.97566271e-02" Max="9.99955237e-01"/>
    <Variable VarIndex="7" Expression="aplanarity_top" Label="aplanarity_top" Title="aplanarity_top" Unit="" Internal="aplanarity_top" Type="F" Min="-6.66133815e-16" Max="3.43454987e-01"/>
    <Variable VarIndex="8" Expression="sphericity_top" Label="sphericity_top" Title="sphericity_top" Unit="" Internal="sphericity_top" Type="F" Min="6.71028175e-08" Max="8.01333129e-01"/>
    <Variable VarIndex="9" Expression="thrust_top" Label="thrust_top" Title="thrust_top" Unit="" Internal="thrust_top" Type="F" Min="5.89760959e-01" Max="1.00000000e+00"/>
    <Variable VarIndex="10" Expression="isotropy_W" Label="isotropy_W" Title="isotropy_W" Unit="" Internal="isotropy_W" Type="F" Min="4.54007499e-02" Max="9.99956787e-01"/>
    <Variable VarIndex="11" Expression="aplanarity_W" Label="aplanarity_W" Title="aplanarity_W" Unit="" Internal="aplanarity_W" Type="F" Min="-3.53883589e-16" Max="3.26199532e-01"/>
    <Variable VarIndex="12" Expression="sphericity_W" Label="sphericity_W" Title="sphericity_W" Unit="" Internal="sphericity_W" Type="F" Min="2.43978589e-04" Max="8.53156984e-01"/>
    <Variable VarIndex="13" Expression="thrust_W" Label="thrust_W" Title="thrust_W" Unit="" Internal="thrust_W" Type="F" Min="6.01489842e-01" Max="9.99781013e-01"/>
    <Variable VarIndex="14" Expression="isotropy_Z" Label="isotropy_Z" Title="isotropy_Z" Unit="" Internal="isotropy_Z" Type="F" Min="5.40560782e-02" Max="9.99956489e-01"/>
    <Variable VarIndex="15" Expression="aplanarity_Z" Label="aplanarity_Z" Title="aplanarity_Z" Unit="" Internal="aplanarity_Z" Type="F" Min="-4.99600361e-16" Max="4.01175559e-01"/>
    <Variable VarIndex="16" Expression="sphericity_Z" Label="sphericity_Z" Title="sphericity_Z" Unit="" Internal="sphericity_Z" Type="F" Min="2.85381364e-04" Max="8.39839339e-01"/>
    <Variable VarIndex="17" Expression="thrust_Z" Label="thrust_Z" Title="thrust_Z" Unit="" Internal="thrust_Z" Type="F" Min="6.08798444e-01" Max="9.99716640e-01"/>
    <Variable VarIndex="18" Expression="sumPz_top/sumP_top" Label="sumPz_top/sumP_top" Title="sumPz_top/sumP_top" Unit="F" Internal="sumPz_top_D_sumP_top" Type="F" Min="-9.77042079e-01" Max="9.82248187e-01"/>
    <Variable VarIndex="19" Expression="sumPz_W/sumP_W" Label="sumPz_W/sumP_W" Title="sumPz_W/sumP_W" Unit="F" Internal="sumPz_W_D_sumP_W" Type="F" Min="-9.95208561e-01" Max="9.43055689e-01"/>
    <Variable VarIndex="20" Expression="sumPz_Z/sumP_Z" Label="sumPz_Z/sumP_Z" Title="sumPz_Z/sumP_Z" Unit="F" Internal="sumPz_Z_D_sumP_Z" Type="F" Min="-9.93809998e-01" Max="9.54594612e-01"/>
    <Variable VarIndex="21" Expression="sumPz_H/sumP_H" Label="sumPz_H/sumP_H" Title="sumPz_H/sumP_H" Unit="F" Internal="sumPz_H_D_sumP_H" Type="F" Min="-9.88116741e-01" Max="9.72672522e-01"/>
    <Variable VarIndex="22" Expression="tau32" Label="tau32" Title="tau32" Unit="F" Internal="tau32" Type="F" Min="0.00000000e+00" Max="1.11627710e+00"/>
    <Variable VarIndex="23" Expression="tau21" Label="tau21" Title="tau21" Unit="F" Internal="tau21" Type="F" Min="7.24919280e-03" Max="9.84483540e-01"/>
    <Variable VarIndex="24" Expression="SDmass" Label="SDmass" Title="SDmass" Unit="F" Internal="SDmass" Type="F" Min="8.22650865e-02" Max="1.14226990e+03"/>
  </Variables>
  <Spectators NSpec="0"/>
  <Classes NClass="1">
    <Class Name="Regression" Index="0"/>
  </Classes>
  <Targets NTrgt="5">
    <Target TargetIndex="0" Expression="targetX" Label="targetX" Title="targetX" Unit="" Internal="targetX" Type="F" Min="0.00000000e+00" Max="1.00000000e+00"/>
    <Target TargetIndex="1" Expression="targetY" Label="targetY" Title="targetY" Unit="" Internal="targetY" Type="F" Min="0.00000000e+00" Max="1.00000000e+00"/>
    <Target TargetIndex="2" Expression="target3" Label="target3" Title="target3" Unit="" Internal="target3" Type="F" Min="0.00000000e+00" Max="1.00000000e+00"/>
    <Target TargetIndex="3" Expression="target4" Label="target4" Title="target4" Unit="" Internal="target4" Type="F" Min="0.00000000e+00" Max="1.00000000e+00"/>
    <Target TargetIndex="4" Expression="target5" Label="target5" Title="target5" Unit="" Internal="target5" Type="F" Min="0.00000000e+00" Max="1.00000000e+00"/>
  </Targets>
  <Transformations NTransformations="1">
    <Transform Name="Normalize">
      <Selection>
        <Input NInputs="30">
          <Input Type="Variable" Label="et" Expression="et"/>
          <Input Type="Variable" Label="eta" Expression="eta"/>
          <Input Type="Variable" Label="isotropy_H" Expression="isotropy_H"/>
          <Input Type="Variable" Label="aplanarity_H" Expression="aplanarity_H"/>
          <Input Type="Variable" Label="sphericity_H" Expression="sphericity_H"/>
          <Input Type="Variable" Label="thrust_H" Expression="thrust_H"/>
          <Input Type="Variable" Label="isotropy_top" Expression="isotropy_top"/>
          <Input Type="Variable" Label="aplanarity_top" Expression="aplanarity_top"/>
          <Input Type="Variable" Label="sphericity_top" Expression="sphericity_top"/>
          <Input Type="Variable" Label="thrust_top" Expression="thrust_top"/>
          <Input Type="Variable" Label="isotropy_W" Expression="isotropy_W"/>
          <Input Type="Variable" Label="aplanarity_W" Expression="aplanarity_W"/>
          <Input Type="Variable" Label="sphericity_W" Expression="sphericity_W"/>
          <Input Type="Variable" Label="thrust_W" Expression="thrust_W"/>
          <Input Type="Variable" Label="isotropy_Z" Expression="isotropy_Z"/>
          <Input Type="Variable" Label="aplanarity_Z" Expression="aplanarity_Z"/>
          <Input Type="Variable" Label="sphericity_Z" Expression="sphericity_Z"/>
          <Input Type="Variable" Label="thrust_Z" Expression="thrust_Z"/>
          <Input Type="Variable" Label="sumPz_top/sumP_top" Expression="sumPz_top/sumP_top"/>
          <Input Type="Variable" Label="sumPz_W/sumP_W" Expression="sumPz_W/sumP_W"/>
          <Input Type="Variable" Label="sumPz_Z/sumP_Z" Expression="sumPz_Z/sumP_Z"/>
          <Input Type="Variable" Label="sumPz_H/sumP_H" Expression="sumPz_H/sumP_H"/>
          <Input Type="Variable" Label="tau32" Expression="tau32"/>
          <Input Type="Variable" Label="tau21" Expression="tau21"/>
          <Input Type="Variable" Label="SDmass" Expression="SDmass"/>
          <Input Type="Target" Label="targetX" Expression="targetX"/>
          <Input Type="Target" Label="targetY" Expression="targetY"/>
          <Input Type="Target" Label="target3" Expression="target3"/>
          <Input Type="Target" Label="target4" Expression="target4"/>
          <Input Type="Target" Label="target5" Expression="target5"/>
        </Input>
        <Output NOutputs="30">
          <Output Type="Variable" Label="et" Expression="et"/>
          <Output Type="Variable" Label="eta" Expression="eta"/>
          <Output Type="Variable" Label="isotropy_H" Expression="isotropy_H"/>
          <Output Type="Variable" Label="aplanarity_H" Expression="aplanarity_H"/>
          <Output Type="Variable" Label="sphericity_H" Expression="sphericity_H"/>
          <Output Type="Variable" Label="thrust_H" Expression="thrust_H"/>
          <Output Type="Variable" Label="isotropy_top" Expression="isotropy_top"/>
          <Output Type="Variable" Label="aplanarity_top" Expression="aplanarity_top"/>
          <Output Type="Variable" Label="sphericity_top" Expression="sphericity_top"/>
          <Output Type="Variable" Label="thrust_top" Expression="thrust_top"/>
          <Output Type="Variable" Label="isotropy_W" Expression="isotropy_W"/>
          <Output Type="Variable" Label="aplanarity_W" Expression="aplanarity_W"/>
          <Output Type="Variable" Label="sphericity_W" Expression="sphericity_W"/>
          <Output Type="Variable" Label="thrust_W" Expression="thrust_W"/>
          <Output Type="Variable" Label="isotropy_Z" Expression="isotropy_Z"/>
          <Output Type="Variable" Label="aplanarity_Z" Expression="aplanarity_Z"/>
          <Output Type="Variable" Label="sphericity_Z" Expression="sphericity_Z"/>
          <Output Type="Variable" Label="thrust_Z" Expression="thrust_Z"/>
          <Output Type="Variable" Label="sumPz_top/sumP_top" Expression="sumPz_top/sumP_top"/>
          <Output Type="Variable" Label="sumPz_W/sumP_W" Expression="sumPz_W/sumP_W"/>
          <Output Type="Variable" Label="sumPz_Z/sumP_Z" Expression="sumPz_Z/sumP_Z"/>
          <Output Type="Variable" Label="sumPz_H/sumP_H" Expression="sumPz_H/sumP_H"/>
          <Output Type="Variable" Label="tau32" Expression="tau32"/>
          <Output Type="Variable" Label="tau21" Expression="tau21"/>
          <Output Type="Variable" Label="SDmass" Expression="SDmass"/>
          <Output Type="Target" Label="targetX" Expression="targetX"/>
          <Output Type="Target" Label="targetY" Expression="targetY"/>
          <Output Type="Target" Label="target3" Expression="target3"/>
          <Output Type="Target" Label="target4" Expression="target4"/>
          <Output Type="Target" Label="target5" Expression="target5"/>
        </Output>
      </Selection>
      <Class ClassIndex="0">
        <Ranges>
          <Range Index="0" Min="5.0000048828125000e+02" Max="2.9993706054687500e+03"/>
          <Range Index="1" Min="-2.3990068435668945e+00" Max="2.3996725082397461e+00"/>
          <Range Index="2" Min="4.0380693972110748e-02" Max="9.9995589256286621e-01"/>
          <Range Index="3" Min="-5.8286708792820718e-16" Max="3.9057382941246033e-01"/>
          <Range Index="4" Min="2.2783028725825716e-06" Max="8.8464182615280151e-01"/>
          <Range Index="5" Min="6.1266094446182251e-01" Max="9.9999922513961792e-01"/>
          <Range Index="6" Min="6.9756627082824707e-02" Max="9.9995523691177368e-01"/>
          <Range Index="7" Min="-6.6613381477509392e-16" Max="3.4345498681068420e-01"/>
          <Range Index="8" Min="6.7102817524755665e-08" Max="8.0133312940597534e-01"/>
          <Range Index="9" Min="5.8976095914840698e-01" Max="1.0000000000000000e+00"/>
          <Range Index="10" Min="4.5400749891996384e-02" Max="9.9995678663253784e-01"/>
          <Range Index="11" Min="-3.5388358909926865e-16" Max="3.2619953155517578e-01"/>
          <Range Index="12" Min="2.4397858942393214e-04" Max="8.5315698385238647e-01"/>
          <Range Index="13" Min="6.0148984193801880e-01" Max="9.9978101253509521e-01"/>
          <Range Index="14" Min="5.4056078195571899e-02" Max="9.9995648860931396e-01"/>
          <Range Index="15" Min="-4.9960036108132044e-16" Max="4.0117555856704712e-01"/>
          <Range Index="16" Min="2.8538136393763125e-04" Max="8.3983933925628662e-01"/>
          <Range Index="17" Min="6.0879844427108765e-01" Max="9.9971663951873779e-01"/>
          <Range Index="18" Min="-9.7704207897186279e-01" Max="9.8224818706512451e-01"/>
          <Range Index="19" Min="-9.9520856142044067e-01" Max="9.4305568933486938e-01"/>
          <Range Index="20" Min="-9.9380999803543091e-01" Max="9.5459461212158203e-01"/>
          <Range Index="21" Min="-9.8811674118041992e-01" Max="9.7267252206802368e-01"/>
          <Range Index="22" Min="0.0000000000000000e+00" Max="1.1162770986557007e+00"/>
          <Range Index="23" Min="7.2491928003728390e-03" Max="9.8448354005813599e-01"/>
          <Range Index="24" Min="8.2265086472034454e-02" Max="1.1422698974609375e+03"/>
          <Range Index="25" Min="0.0000000000000000e+00" Max="1.0000000000000000e+00"/>
          <Range Index="26" Min="0.0000000000000000e+00" Max="1.0000000000000000e+00"/>
          <Range Index="27" Min="0.0000000000000000e+00" Max="1.0000000000000000e+00"/>
          <Range Index="28" Min="0.0000000000000000e+00" Max="1.0000000000000000e+00"/>
          <Range Index="29" Min="0.0000000000000000e+00" Max="1.0000000000000000e+00"/>
        </Ranges>
      </Class>
    </Transform>
  </Transformations>
  <MVAPdfs/>
  <Weights>
    <Layout NLayers="4">
      <Layer Index="0" NNeurons="26">
        <Neuron NSynapses="20">
          -1.0987658183515983e+00 3.5178780206229172e+00 -3.3291558511167874e+00 -2.0189801230136912e+00 -4.8711320222212739e+00 -4.6827616450044021e+00 -3.8125478941482998e+00 8.6124808102985710e+00 -5.5440780399954308e+00 -2.2417122656283106e+00 -1.2185299546766208e+00 -3.3478840555688665e+00 6.4396073445427824e+00 3.6561846020015054e-01 1.8359394173937111e+00 -1.4829811702240172e+00 -3.4159126332162479e+00 2.5898451703689660e+00 4.2171754633978187e-01 1.1048251272340186e+00 
        </Neuron>
        <Neuron NSynapses="20">
          -4.4716883282353853e-01 9.2412506018467233e-01 -3.0222276599707354e-01 3.8650495896258408e-01 8.9212998482270789e-01 3.5665796582177840e-02 5.0743867392786357e-01 -4.5910300700588005e-02 -9.4723634270404988e-01 9.9909184959328226e-02 1.3064821013940788e+00 5.5882857885613269e-01 6.8341051889889326e-01 4.3971200988314960e-02 -4.2473615850150848e-01 3.7319215617881379e-01 8.2926957457760825e-02 7.3844616609449298e-01 2.9622553652733381e+00 9.5216434007970296e-01 
        </Neuron>
        <Neuron NSynapses="20">
          4.1556780471021809e-01 2.2143190521608300e+00 1.1453376393040169e+00 5.0938302213976028e-01 -2.5965421225711527e-01 1.8988433072572009e+00 9.2777873860055726e-01 -1.5127579580767367e+00 1.3052319181864773e+00 9.5413707272918702e-01 -7.7801852256639326e-01 7.9079796349723697e-01 -9.2187553099751773e-01 1.0254937277700649e+00 -1.1576277786850693e+00 -3.4648737380098522e+00 -2.7376973708965986e+00 -8.8031498387765983e-01 2.4084050954516253e-01 6.4874006086049352e-01 
        </Neuron>
        <Neuron NSynapses="20">
          9.6734800855516256e-01 -6.1995177429531412e-01 1.1430069386659578e+00 9.9958259535220439e-01 1.4866858866280435e+00 2.5448772194694769e+00 -4.9657202188930455e-01 -1.4589130583403276e+00 3.6074833697545117e+00 -1.5818850888849569e+00 -1.5973244614065407e+00 -2.1127730668635132e+00 3.1487614545113274e-01 -6.5105774815015804e-01 3.0291369130061661e+00 -9.4984272177221563e-01 -2.6168747149011025e+00 -5.1100619311838258e-01 2.2562600666781378e+00 -1.5939006444474993e-01 
        </Neuron>
        <Neuron NSynapses="20">
          -3.1447819684858508e-01 -4.0601317256975283e-01 6.8042771179309334e+00 -3.8386666403819452e+00 -2.0985113402445679e+00 2.6410904064841323e+00 -1.6868679811369602e-01 -9.6380851251320665e-01 -6.2019962623804359e-01 -1.3952047800578651e+00 2.0530594827868311e+00 5.0625232699661393e-01 2.9695495512452941e+00 -3.6241093548059328e-01 1.3430170630194551e-02 1.1220497155700655e+00 -3.3591336090944440e-01 4.9628570562062307e-01 1.4485278743160994e+00 1.2635437246978859e-01 
        </Neuron>
        <Neuron NSynapses="20">
          -4.9034082481563801e-01 -3.6136440625403585e+00 -2.2249106973853010e+00 1.2661290570508743e+00 -1.5172284304146486e+00 -1.2015263202812358e+00 -2.0594395151288563e+00 -1.2875796151915668e+00 -1.2048075305548323e+00 2.0725478769527816e-01 1.3375936161946782e+00 1.4295006540395798e+00 -1.2408495052779300e+00 1.9153029074749699e+00 8.0545935014965608e-01 2.0810555347187770e-01 3.6390052125119698e-01 2.7913452187760104e+00 2.2271619653036279e+00 -8.4836038783370382e-01 
        </Neuron>
        <Neuron NSynapses="20">
          -1.5026196823944200e+00 -3.8791620028905749e-01 8.1144134638274101e-01 -1.7260452867703802e+00 1.6797401256109834e-01 -1.0957298046414556e+00 -1.6345968847453449e+00 5.3531476036063197e-01 -2.9067250319170093e+00 6.1461183454893065e-01 -9.4538043540521954e-01 -2.0568005647580359e+00 2.2625161690074176e+00 3.0665028227102115e-01 1.3380534722502726e+00 8.8488676850221681e-01 -1.3637873744317355e+00 4.5556064493168996e-01 -7.8072142949498602e-02 1.2510457063328153e+00 
        </Neuron>
        <Neuron NSynapses="20">
          1.8585861629475389e+00 1.4953860104984509e+00 -2.0101727482251821e+00 -1.0795702373255460e+00 -1.1216999067231799e+00 8.5665546297486983e-01 1.1408547454847620e-01 -2.3183434353385262e+00 -2.3961204551758994e+00 -4.3785650908986090e-01 -6.8638321313728867e-01 7.1264519351227393e-02 -1.0980508129789263e-01 3.1239612601722282e+00 -4.3404695389525749e-01 7.0123943650494869e-01 -7.2586001756744989e-01 2.3106429195189184e+00 2.9449554366972661e+00 -2.3950713862935200e+00 
        </Neuron>
        <Neuron NSynapses="20">
          1.0044491710685135e+00 3.8145457483170571e+00 3.5430526476974927e-01 -1.5280256225506678e-01 -3.2016108469912602e-01 -2.7332209296450749e+00 -3.1707354903236702e+00 2.3394739142987134e-01 -5.6188481859514523e+00 3.1276729842041012e-01 4.5075728447217687e+00 1.2894739433311819e-01 -1.0575352733179268e+00 1.0734451730377881e+00 1.6147483536570468e+00 -6.5332522670940874e+00 3.4092371259337608e+00 -6.6361452081024763e-01 7.8719883698528104e-01 -1.4929922037985326e+00 
        </Neuron>
        <Neuron NSynapses="20">
          -1.8297968563948002e+00 -1.6855949737658080e+00 1.9093626561845880e+00 -1.6467090953850361e-01 -1.6437366189148523e+00 -4.9263327211473906e-01 -1.6898905330422298e+00 1.8542621519021174e+00 -9.3620024943484703e-01 -3.6916561424776939e-01 2.5479502106793639e+00 2.2109704857175578e+00 2.6150694458515757e+00 7.6676195678428027e-01 1.4200072882959516e+00 -3.0088200599579875e+00 3.3869559165339571e+00 -1.5565904216580936e-01 3.1309706705510636e+00 -1.1140640962253492e+00 
        </Neuron>
        <Neuron NSynapses="20">
          1.2166286660976442e+00 9.3625830627612566e-02 8.8871202125948179e-02 5.6720927158883683e-01 1.1486996720473681e+00 -7.9623034300970130e-01 7.7560510650909875e-01 1.5577381384204386e-01 1.5668140211821715e+00 4.3155399471414940e-01 8.2007989800685244e-01 6.0036346618362879e-01 -1.5587908958807510e+00 -4.9844261409131263e-01 -4.8153060351845516e-02 1.6090069944870546e+00 1.9320362461818390e+00 -9.4741657657301426e-01 4.3156067206920884e-01 -1.3935803123718244e+00 
        </Neuron>
        <Neuron NSynapses="20">
          -8.2989763953065787e-01 4.2486652234820699e-01 -1.2743174443383090e+00 2.2356757831686678e+00 1.6992468733016373e+00 1.1503926952956613e+00 1.5641431320679908e+00 5.3327496457172240e-02 -4.4425501883696240e-02 -2.2141890582803549e+00 3.6230006182883778e-01 -6.8620767541245409e-01 4.3609357252429586e+00 -1.4059463754683221e+00 1.3730677875082562e+00 -2.7712176030505602e+00 1.0959341079840973e-01 -2.3814076127563905e-01 -7.9239462897082091e-01 -1.9088307309753505e+00 
        </Neuron>
        <Neuron NSynapses="20">
          6.6338890173946674e-01 -4.0738708201755349e+00 -1.1493569229326428e+00 -5.3059158675310858e-01 -5.2310867011227391e-01 1.5848305469260937e-01 -2.1222868077301880e+00 -1.6844762273930289e+00 1.4417238231027911e+00 -1.0077771903497825e+00 6.5198166079922382e-01 -1.9781674628539816e+00 -2.4991218331847223e+00 2.3276345971426191e-01 2.3317646296488177e+00 -5.1486765710779503e+00 -1.1184370998508588e+00 -8.3279380894170446e-02 -1.4236748725910982e+00 -1.9054221152816311e+00 
        </Neuron>
        <Neuron NSynapses="20">
          5.6737605342854922e-02 3.2997182228379383e+00 5.0678948039867333e-01 -1.9843093097630595e+00 -6.5911117072852565e-01 8.0484138628544366e-01 -1.9520132766955831e+00 6.1108236364150459e-01 8.3884161569410393e-02 -8.5433600326417791e-01 1.8402978818688667e-01 1.7231144430927923e+00 -1.9278303420058049e+00 -1.4091085306036570e+00 -2.4643764782418578e+00 -3.0840768414050181e+00 2.5269991491555177e+00 5.8361943114403703e-01 3.7800617192314396e+00 5.0306706180185434e-01 
        </Neuron>
        <Neuron NSynapses="20">
          8.4061012531548729e-01 4.8222592619134574e-01 -5.8107772997681861e-01 6.9732442497856006e-01 -1.4890768622184802e+00 5.6042171051249190e-01 -1.4695320832389505e+00 -1.9935358039388312e-01 -1.3176612134216013e+00 1.0251873601752899e+00 -1.1849240879256628e+00 7.0781554520094392e-01 6.1381527972903349e-01 -4.2048912954013667e-01 -6.8278757041039506e-01 -1.6087822264367886e+00 2.7118489600160872e-01 4.2607591306585962e-01 -3.3306146749924173e+00 -1.2770039235090469e+00 
        </Neuron>
        <Neuron NSynapses="20">
          -8.5651012137738114e-01 -5.6244566594262846e-01 2.3157335810795221e+00 3.6316066843886691e-01 1.1471715567798108e-01 1.5761459289061424e+00 -8.9598032543079620e-01 -1.8332408462032610e+00 6.8618863330041957e-01 -2.3936273436687379e+00 2.8863312424341375e-01 -2.1188610987155565e+00 1.6183460840563844e+00 4.9970826896086851e-01 5.2410330184640352e-01 -1.5465215420800347e+00 9.1459830390445873e-01 -1.6815419276769001e+00 2.1343855185104923e+00 3.0153029135475024e-01 
        </Neuron>
        <Neuron NSynapses="20">
          -1.2406107434837605e+00 -3.1376919110593087e+00 1.8051019886978914e-01 1.0479645632913368e+00 1.0632452525782323e+00 -1.4483017118611932e+00 1.8937015201875469e+00 2.9130875391361424e+00 -3.4011053938070823e+00 8.2537541425917937e-01 -1.2112000746681844e+00 1.2744818378384557e+00 -1.0520348508607982e+00 2.5239906876862078e-01 -1.9726837548609046e+00 2.6524995669270877e+00 1.8504966010624322e+00 1.5523472361686048e+00 9.3934271091929172e-02 -1.6646193842883925e-01 
        </Neuron>
        <Neuron NSynapses="20">
          4.4919904570006372e-02 1.8580200616501759e+00 1.5444078874366645e+00 -1.0858754776648372e+00 -4.3272566948873181e-01 -1.0328340282275050e+00 -6.1319641192931408e-02 -7.3810582721218876e-01 2.1900036725274581e+00 -1.0594374986710737e+00 1.4577591524518070e+00 1.5032277043652607e+00 -3.0794340855921631e+00 9.0116666403435053e-01 -4.0178997279414103e-01 -3.1018407659698766e+00 -7.3359084500989891e-01 9.3483800037062015e-01 1.7370847781273926e+00 -5.8459594230194623e-01 
        </Neuron>
        <Neuron NSynapses="20">
          2.5230601324882791e+00 -2.7577487733556105e+00 -2.7122341960911909e+00 -3.5229952563433673e+00 5.5615717146521348e-01 -1.0757183517088199e+01 -1.4821260221538424e+00 -1.1045569028874251e+00 -4.5658325936824156e+00 -2.2301624524596626e+00 5.2331141388359983e+00 -1.5989168368260336e+00 -6.7636317301696334e+00 2.9589835873398140e+00 9.3424041551262715e-01 1.3901305646318800e+00 -2.7550577341194797e+00 3.2795231010560557e+00 1.0922212605610251e+00 -4.9353752708334885e-02 
        </Neuron>
        <Neuron NSynapses="20">
          -6.5321574284778072e-01 5.9947864784688198e-01 -1.9590734192120078e+00 -8.9079819179958108e-01 2.8018138646426144e-01 -5.7795182587869809e-02 6.0094381157203192e-01 3.7649644959813233e-01 2.4348582412997430e+00 -2.4015173363678510e+00 2.9695449777763860e+00 7.6292511213821190e-01 -2.3412428201256703e+00 -1.3547588666620238e+00 -9.6036552559132826e-01 -1.4295002140455138e+00 6.0522923770392711e-01 3.4557493895327118e-01 3.7118818686188639e+00 -1.5136719669901046e+00 
        </Neuron>
        <Neuron NSynapses="20">
          1.3098546446893224e+00 3.1835604372387247e+00 -2.5908133079898987e-01 -2.4969533182008750e+00 1.3185852533891405e+00 -1.8287609350888019e+00 5.4826926928809727e-01 8.9809978115326561e-01 3.7613859229004398e-01 -1.8580904677260288e+00 1.8057309696775541e+00 -1.0514258831002545e+00 4.6829670664085016e-01 -2.5787573046832202e-01 5.7345595547287775e-01 -2.0563675324007837e+00 2.1315588711244446e+00 4.7108807256086199e-01 2.8834956907911686e+00 -1.5893263820766323e+00 
        </Neuron>
        <Neuron NSynapses="20">
          -8.8984855927823348e-01 2.0198252812369182e+00 1.3743533585398784e-02 -1.7611865672232394e+00 -1.6732508775669521e+00 -4.4727388471030807e+00 -1.3718922953010999e+00 -1.9437666451073516e+00 -2.4602884697314931e+00 -1.5868981360131948e-01 3.1855776344478710e+00 -1.9045868030372568e+00 -1.9425701976375216e+00 -7.0202852022317686e-01 1.4888374193331997e+00 2.1430619784066689e+00 1.0045785501511120e+00 -4.7048194847487679e-01 -1.2017019882691289e+00 -9.7381831846062961e-01 
        </Neuron>
        <Neuron NSynapses="20">
          -5.2783400676716701e+00 -3.1351737476469363e+00 9.9272228968176862e-02 -3.1909026105930076e+00 1.6875312698545319e-01 -2.4286731603032359e+00 1.3303923540040847e+00 -7.6751956478724750e-02 1.0112005860855479e-01 -8.3326022415937517e-01 2.3499577657643029e+00 -2.2414096034537403e+00 4.3328184856850687e+00 -1.5892208058401078e-01 1.4496407568887519e+00 -2.4105176487520366e+00 2.5558187763055153e+00 -2.9623781235010544e+00 2.0861140654318286e+00 1.7872255243051849e+00 
        </Neuron>
        <Neuron NSynapses="20">
          3.5926602822942675e+00 -2.8243475306311456e+00 -3.3915522009067958e-02 -1.9892542628982335e+00 2.6655200081327770e+00 1.5705116857083872e+00 -2.1796965624169568e-01 6.1336740799345570e-02 -3.3509996435798295e-01 9.1443115062517044e-01 3.2320434671169895e-01 3.0985137772596244e-01 -1.9506807364768797e+00 2.2828674235749631e+00 -4.7595870934205049e+00 -2.8581264903465877e+00 1.1400643723608546e+00 4.9728762606327570e-01 -2.4159888385848105e+00 1.6477623565356143e+00 
        </Neuron>
        <Neuron NSynapses="20">
          -3.1485671878812735e+00 6.6151487808083420e-01 -1.3635098677954811e+00 3.3701424883967754e+00 1.3512456575396647e+00 -6.2500032598167587e+00 -1.1850950327016441e+00 -4.1894712572892097e+00 6.7124672886616410e-01 -1.8098934483525883e-01 -3.5154133856740022e+00 -1.9342245975524295e+00 -3.2103522100380149e+00 -7.4137360105069510e+00 -1.9076789705003707e+00 -1.8370326668421806e+00 -8.0837636056844431e-01 -6.5942429131699565e-01 2.5209780532197432e+00 -5.9281830229556898e-01 
        </Neuron>
        <Neuron NSynapses="20">
          1.4922609190622249e+00 -2.4436046145288635e+00 2.8250259946136813e+00 4.8834594723452902e+00 -1.5283038709971339e+00 -2.2448118224343153e-01 1.7313166076904924e+00 1.8783152890744317e+00 2.4277110372830224e+00 -7.3105489247818423e-01 1.0058033142944562e+00 -8.1860899214981031e-01 -5.7196448116218033e+00 -6.9325147859541776e+00 3.0262092970904653e-01 -5.7390164916595665e-01 -2.6267673978197337e+00 2.3186628339893454e+00 6.6184631676982009e-01 2.1823858526088111e+00 
        </Neuron>
      </Layer>
      <Layer Index="1" NNeurons="21">
        <Neuron NSynapses="20">
          2.1616662366922643e+00 -1.7000850010928106e+00 1.3521690242135240e+00 -2.3260489160276676e+00 4.1901990619816332e-01 -7.0283803151244428e-01 -9.4774801871714581e-02 -9.3220835033112337e-01 2.8371891186714269e+00 -1.5562838887170480e+00 -1.1669741395286011e+00 -3.1159222137377451e-01 7.0284939611960839e-01 -1.6589743490383491e-02 -5.8563503315616261e-01 -8.2170925103603354e-02 -4.5796276629877203e-01 -1.0566108949375024e+00 9.7010848685299134e-02 -2.0388969488659190e+00 
        </Neuron>
        <Neuron NSynapses="20">
          -5.0493260184693476e+00 1.2512019388914714e-01 -7.9522909190156232e-01 -1.1292769372028284e+00 1.0056449416588997e+00 3.1534097113024102e+00 -4.2170693937556667e+00 -2.4596905720579505e+00 -1.6134779434779223e+00 -2.1086990467537796e+00 2.8284136204047999e-02 2.2158100863566363e-01 -1.1745336943490308e+00 -8.4776293763707811e-01 -7.8956815266737335e-01 -6.4175900425732317e+00 -3.0026871671451449e-01 -1.1852961481413595e+00 9.9893888329374592e-01 -2.2562991011264537e+00 
        </Neuron>
        <Neuron NSynapses="20">
          2.9983538664681633e+00 1.7384569891933501e+00 1.7704208531717778e+00 5.1122047689357963e-01 3.6634294273072260e-01 1.4934772985327163e+00 -2.3888982229721032e+00 -2.9291008896759987e+00 3.4524054415678349e+00 -4.2980323407079135e-01 6.1452109386869580e-01 -7.8773419606361153e-02 1.5218569985525643e-01 1.5659881895152308e+00 7.0305617669150236e-02 -2.6573675683767101e-01 2.2700123105008560e-01 -2.0914931791249094e+00 5.0870229268587175e-01 -1.7813844623971629e+00 
        </Neuron>
        <Neuron NSynapses="20">
          1.5435113613867910e+00 -2.2342086862391172e-01 1.0498670764339371e+00 -1.7851075201139996e+00 1.6936323228622496e+00 -4.3365400876918745e+00 6.5624164510428677e+00 4.3877920080186286e+00 -5.7799353660764752e-01 -9.4375631943697880e-01 -1.7281881113457593e+00 2.5071154613630897e+00 -4.7273155712093973e-01 1.0378213706740973e+00 -1.7709922454959994e+00 -4.2400114628774705e+00 1.9902948818458122e+00 -1.9767824848549318e+00 -1.0395265922005092e+00 -1.0768172023688394e+00 
        </Neuron>
        <Neuron NSynapses="20">
          -6.5335366242801240e-01 1.4597377563655398e+00 1.4122184306216505e+00 -1.7296911394159358e+00 -1.8081917582362657e+00 3.9196371183783524e-01 -1.8785982852289933e+00 -1.3548898534214460e+00 1.4912872208863084e-01 -1.6419604669053731e+00 -1.8928114046350289e-01 1.4505758319280428e+00 -6.0411592960942062e-01 -1.1975331238931955e-01 -1.4081573418452917e+00 3.2269635103556018e+00 5.8947265846015950e-01 1.2318366991608933e+00 -6.3267482239154449e-01 -1.3271203334307626e+00 
        </Neuron>
        <Neuron NSynapses="20">
          3.4548687417997876e+00 1.6275755175274417e-01 1.7015831839087909e+00 -1.2474519803084181e+00 3.1680335334332710e-01 -1.9136823646701977e+00 -4.4651068075463107e-01 2.1499567450558228e+00 -4.5097497746494657e+00 -5.9865486394733727e-02 7.7888480126433027e-02 6.3132449375455191e-01 9.5312025847878390e-01 -1.7765668173215394e+00 -1.2734014784938830e+00 -1.0903998532433117e+00 -1.0092952352301217e+00 3.1393308783414592e-01 1.5110031012772980e+00 -2.0430717905287925e+00 
        </Neuron>
        <Neuron NSynapses="20">
          2.6403999400118555e-01 -1.3688951284655184e+00 1.2916746894547665e-01 -1.8339819304738691e-01 -2.5683053711051826e+00 -4.9955679353586813e-01 -1.2516416476807057e+00 2.2197466811000193e+00 -1.3692439333529605e-01 -2.3700806747952416e+00 -2.3806342873845851e-01 -8.2247082088331303e-01 -1.3568144307340084e+00 -1.0991875715793973e+00 3.2559629784868543e-01 -4.2887804682852906e+00 6.7758688920161414e-01 -1.4638286141261834e+00 4.8106079687427306e-01 6.6290295329505189e-01 
        </Neuron>
        <Neuron NSynapses="20">
          -1.7540575352022594e+00 1.9543143828355640e+00 1.3889213257566220e+00 -2.0338671533268133e+00 -1.7974079322082490e+00 -8.6188501253143002e-01 2.6149584673381545e+00 6.7495176219937836e-01 2.5950452039301890e+00 1.2929355439462837e+00 -2.4821089371674159e+00 -7.9116957790412412e-01 -6.6361398908755198e-01 -2.3601928244321621e-01 4.0099912372740748e-01 -4.5221391873453802e+00 1.1322684705746051e+00 -9.8840103596417339e-01 -5.2595378944677218e-01 -2.3976837637867470e+00 
        </Neuron>
        <Neuron NSynapses="20">
          3.4097860388021002e+00 4.9950278069134768e-01 1.3940982319877364e+00 -6.2656143153358035e-01 6.9873008885825627e-01 -7.8169734834084914e-01 6.5159062154832403e-01 -1.2018943625085787e+00 -8.9911611487471732e-02 -4.1185473535667834e+00 1.1250475908910085e-01 1.5177743933672134e+00 8.4141937345722873e-01 1.2097963630760102e+00 -6.7818734079500664e-01 1.2640034293058930e+00 1.4948905209898615e+00 3.2561421128401036e-01 -2.1176374923003052e+00 5.5940315492930637e-01 
        </Neuron>
        <Neuron NSynapses="20">
          6.3087213805133191e-01 1.8796212183474497e+00 1.1507868342377319e+00 -1.3175746827960524e+00 -2.1266564732750353e+00 -1.0618597592324859e+00 -2.0198680872448227e+00 -6.5645961883525206e-01 5.0797296089301169e-01 -2.3224526868453812e+00 -1.2581948530912792e+00 1.7616059832830437e+00 1.2230688720868459e+00 2.1112827897175956e-01 -1.3571327234770010e+00 7.4620127552790605e-01 9.2589042008080613e-01 -2.2593416038118215e+00 1.5719402219829781e+00 -3.9673016614819800e-01 
        </Neuron>
        <Neuron NSynapses="20">
          -3.4323015649506494e-01 1.8710286752944623e+00 -1.3608806361740573e+00 -1.0504460458726776e+00 3.3923349359149997e+00 -7.5725303080897943e-01 -1.9698485464541553e+00 -1.9561330792569873e+00 1.4533916988103730e+00 3.8745943843789270e+00 3.0506877288906536e-02 -6.4876391329079253e-01 1.9858317394174061e+00 1.9530099361499795e+00 -5.4570307830247011e-01 -7.2133645948367908e-01 1.6489480128725559e-01 9.7357536024021418e-01 -1.2220712360958925e+00 -2.2928672055251989e-01 
        </Neuron>
        <Neuron NSynapses="20">
          -4.4703152905459531e-01 1.5491229574183742e+00 -1.6566662322473016e+00 -3.3851961174476397e-01 -2.5737579417397685e+00 1.0612988903506158e-01 8.4200323642617281e-01 2.0761589677070060e+00 -1.9901124359758484e+00 -3.1951114910387073e+00 -1.2642798893237959e+00 1.6078624848476726e+00 1.4807116363212582e+00 1.3888147511237967e+00 -2.9036220662914425e-01 6.6461568261251514e-01 6.9072980976741505e-01 -4.0961658490063024e-01 -1.4915179322919589e+00 1.0693635199688492e+00 
        </Neuron>
        <Neuron NSynapses="20">
          -5.4623497594880277e+00 2.2118634366020989e-01 3.4716099905087094e-01 -1.0212867600400666e+00 -1.1378258059800286e+00 -1.5409493704862294e+00 2.7073043488225115e+00 4.6029728113879855e+00 -6.0228988768066616e+00 3.2833528294347319e-01 -1.0128670210351087e+00 1.1082072507529852e+00 1.0079592137325095e+00 1.7020724274285848e+00 -3.6202903073065745e-01 7.2740681229970350e-01 -1.7919077610522836e+00 1.1485902907193879e+00 -1.1566181297241288e-01 -2.1885926537164155e-01 
        </Neuron>
        <Neuron NSynapses="20">
          -6.4454772529005471e+00 8.9956181458837747e-01 2.6991903450426884e+00 -1.4719255754850322e+00 -3.2279353007452576e+00 1.6981895498916086e+00 -4.8623422132943078e-01 1.8210361905171240e+00 -5.8366216023348159e+00 -2.6757332625741719e+00 6.1031601013145964e-01 -7.1699961140518553e-01 -4.6631502706496131e-01 5.5484566036620019e-02 -2.5768209038212884e-02 3.6232978809349881e+00 3.1379475484254454e-01 1.1797275937224077e+00 4.2235104148897846e-03 -1.9836771436766227e+00 
        </Neuron>
        <Neuron NSynapses="20">
          3.5237803897684961e+00 9.5229314086121142e-01 9.9777518360787298e-01 -1.1588653562706381e+00 2.6025904192155908e-01 1.1120963741245091e+00 -1.3918127543862036e+00 -2.0046323982648588e+00 3.0706376909656217e+00 -3.8434374550670700e+00 1.5121049620981111e+00 -1.1061717157899320e+00 -1.0987901853600197e+00 4.8470097396488158e-02 -9.1095806747428298e-01 4.3596315568049882e-01 -1.5965780404590997e+00 -1.3099399173662363e-01 -1.3267296432212344e-01 -8.4297371624293616e-01 
        </Neuron>
        <Neuron NSynapses="20">
          -7.1345243409758501e+00 1.2648418038892717e+00 2.8004758068842445e-01 -2.4717683062631002e+00 3.9880472571272150e+00 -9.7467829365386471e-01 -1.5816869089268413e+00 -3.6964969997637795e+00 -3.2812121466726896e+00 2.4666812312755186e+00 -1.2204216171334199e+00 1.2039445679794987e+00 1.3958939465097264e+00 -7.2320302908380563e-01 -1.2805404509372493e+00 3.3828674222499582e+00 1.5729253644603736e+00 2.4986788008269595e-01 -5.4777280577512237e-02 -1.6100152755371859e+00 
        </Neuron>
        <Neuron NSynapses="20">
          -2.4731121536325462e+00 9.4209608497720954e-01 -1.8744294348459873e+00 3.9718712328816269e-01 -1.7312766978522784e+00 -2.0272659259476478e+00 -8.2743702798152108e-01 6.8756522888269789e-01 -2.2944283677063746e+00 -3.9384863628178252e-01 -1.7126796447699930e+00 -1.2713520210981416e-01 -1.8635478127107443e+00 1.8360925396544352e+00 4.8769378726343193e-01 3.2688271498699231e+00 -4.6835198221339364e-01 -5.0747407004257572e-01 9.6532537830293319e-01 1.1091016720661739e+00 
        </Neuron>
        <Neuron NSynapses="20">
          3.4393283794947798e+00 1.9287428797322776e+00 2.8281004089103179e-01 -4.4557652358993527e-01 -3.3506376194703419e-01 4.8963934666890591e-01 6.3892804191013131e-01 -1.4850889857583269e+00 2.6657867443748495e+00 5.5585911645528863e-01 -1.1160773167475866e+00 1.4724420449454227e+00 1.6424827154773556e+00 2.0528746418267310e+00 -2.8477737063672404e+00 8.8793256281848032e-02 1.0271895878164912e+00 -2.2611543558158806e+00 -1.5968592322195427e+00 6.5318279748493779e-01 
        </Neuron>
        <Neuron NSynapses="20">
          6.3293233863817360e+00 7.5221651717588878e-01 -1.1363178886733012e+00 1.1601197969765502e+00 -1.8952204195045559e+00 1.4484563293014840e-03 -3.7760005166878758e+00 -1.7301930372155478e+00 5.6947266455859902e+00 -1.0961529045100717e+00 1.3871885562366930e+00 1.2450075483909460e+00 1.1855223726301116e+00 4.3108779365822497e-02 1.0742753444803828e+00 -2.3866620075392142e-01 -1.3682002331387584e+00 -1.6966845010981850e+00 -1.5080473437694293e+00 -4.1502261777774840e-01 
        </Neuron>
        <Neuron NSynapses="20">
          -1.1038546788011188e+00 1.3523552794842451e+00 7.4106230884088686e-01 1.1054008206851446e-01 2.3100283556732235e-01 -6.6277422751160031e-01 1.0100546099767498e+00 1.4201345048993410e+00 1.4619426622478291e+00 4.5950845545368685e-01 1.6583513402391967e-01 -4.4618052073957581e-01 1.6769275743088226e+00 2.1615024420530946e+00 -1.4794168306493791e+00 -6.4344650500809220e-01 -9.9583469012389725e-01 1.3410354688763754e-01 -1.7243969686622047e+00 -1.6424734766783231e-01 
        </Neuron>
        <Neuron NSynapses="20">
          -1.9268426451349527e+00 1.5582604228632493e+00 1.4931997333711005e+00 7.9108286556044605e-01 -2.7823147139531121e+00 1.9341930590536052e-01 -1.6845943554355203e+00 1.2033428540878623e+00 2.4084239289227400e+00 -1.8448760813933540e-01 -1.5167317969619332e+00 -2.1946690063101865e-01 1.9716346443319652e+00 2.1343179080839794e+00 -2.0368211949485677e+00 -1.3127049968793408e-03 2.0073509792159744e-01 -4.4065589715800807e-01 -1.0470929032409282e+00 9.5627089258301157e-01 
        </Neuron>
      </Layer>
      <Layer Index="2" NNeurons="21">
        <Neuron NSynapses="5">
          1.9234621937700387e+00 -1.8106194505849040e+00 4.0242179920594381e-02 6.4398086273771502e-03 -1.4731558642923923e-01 
        </Neuron>
        <Neuron NSynapses="5">
          -1.1358769269664746e+00 -4.0809812475872974e-02 -1.1995696613190059e+00 2.0394229634496028e+00 1.2594203605612229e+00 
        </Neuron>
        <Neuron NSynapses="5">
          -1.1742906818133780e+00 -4.4034145020235832e-01 6.1825769473714720e-01 3.1057796083579781e-02 1.5702075634690580e+00 
        </Neuron>
        <Neuron NSynapses="5">
          7.3972720653482060e-01 -1.5888654335811496e+00 -1.2572270452412355e+00 4.3974323947494687e-01 -7.1878481123901405e-01 
        </Neuron>
        <Neuron NSynapses="5">
          -2.9850629442267275e-02 -5.8532356604573829e-02 4.2936819335511771e+00 -3.4239792679534111e+00 -6.2131567598188986e-01 
        </Neuron>
        <Neuron NSynapses="5">
          -5.3741470269733760e-01 -4.5928436752889629e-02 -2.0197663637909331e+00 2.4534771297597135e+00 -4.7718041957027404e-02 
        </Neuron>
        <Neuron NSynapses="5">
          -4.0566725426087369e-01 8.9612375051502169e-01 -1.2572026652933965e-01 -3.5733264377650439e-02 -4.1861189332952392e-01 
        </Neuron>
        <Neuron NSynapses="5">
          1.8682326453547410e-01 1.0345191605585187e+00 -5.1182461420491865e-01 -1.0101969341815669e+00 3.4697218093575133e-01 
        </Neuron>
        <Neuron NSynapses="5">
          8.8853927546236347e-02 1.8066455310033780e+00 -9.3728179959018068e-02 -1.0832795873539264e-01 -1.7148336680081115e+00 
        </Neuron>
        <Neuron NSynapses="5">
          -3.8617581440355386e-01 -1.3010865090686008e-01 5.2779263032107879e+00 -2.5442264841598830e+00 -2.2848072829909158e+00 
        </Neuron>
        <Neuron NSynapses="5">
          1.5768816648504940e+00 1.1397343480435091e+00 1.1810535128166684e+00 6.2508288784802113e-01 1.4870349244790282e+00 
        </Neuron>
        <Neuron NSynapses="5">
          6.9358405357368022e-02 2.8557715533641065e-01 5.5884763078481625e-01 -1.4703926427332119e+00 5.4985878156029555e-01 
        </Neuron>
        <Neuron NSynapses="5">
          -9.2990104834052223e-01 -5.1688917779521271e-01 -1.1756819423094234e+00 -2.9454004713891818e-01 -8.5151141152920085e-01 
        </Neuron>
        <Neuron NSynapses="5">
          -6.7393143336274364e-01 -1.3975847158304981e+00 1.2464008712737207e+00 6.8027135546253559e-01 -1.6775192564710573e+00 
        </Neuron>
        <Neuron NSynapses="5">
          -3.5757038219746279e-01 1.4200145221792198e+00 1.1689901176878379e+00 -1.0889322718420467e+00 -1.0171492473325490e+00 
        </Neuron>
        <Neuron NSynapses="5">
          -1.7538092193582289e-01 -5.5336566265167718e-02 -5.2511827261622324e-01 -9.9228009576236231e-01 1.6924068823675884e+00 
        </Neuron>
        <Neuron NSynapses="5">
          1.0034226568462357e+00 -3.5551650748239949e-01 -6.6008354198591490e-01 2.3812511181448839e-01 -1.7593686576276637e+00 
        </Neuron>
        <Neuron NSynapses="5">
          -6.1316338298996542e-01 -1.3030238044171654e+00 -1.4558880184881766e+00 1.7206330012819276e-01 -1.3753512876530523e+00 
        </Neuron>
        <Neuron NSynapses="5">
          3.4056185755821200e-01 1.0033798994537892e+00 -3.3427492040001788e-01 -9.4395628045400504e-01 -1.1619544863321600e+00 
        </Neuron>
        <Neuron NSynapses="5">
          9.6807974793712004e-01 1.1274622634244549e+00 2.1516217131244633e-01 1.7488864834869371e+00 -2.2836978690468381e+00 
        </Neuron>
        <Neuron NSynapses="5">
          1.9511118635076368e+00 -2.7910687570489912e-01 2.6402948097810908e-01 -1.0919525475829017e+00 1.7932231764463784e+00 
        </Neuron>
      </Layer>
      <Layer Index="3" NNeurons="5">
        <Neuron NSynapses="0"/>
        <Neuron NSynapses="0"/>
        <Neuron NSynapses="0"/>
        <Neuron NSynapses="0"/>
        <Neuron NSynapses="0"/>
      </Layer>
    </Layout>
  </Weights>
</MethodSetup>
